%YAML:1.0
---
opencv_ml_svm:
   format: 3
   svmType: C_SVC
   kernel:
      type: LINEAR
   C: 2.6699999999999999e+00
   term_criteria: { epsilon:1.1920928955078125e-07, iterations:1000 }
   var_count: 64
   class_count: 10
   class_labels: !!opencv-matrix
      rows: 10
      cols: 1
      dt: i
      data: [ 0, 1, 2, 3, 4, 5, 6, 7, 8, 9 ]
   sv_total: 45
   support_vectors:
      - [ -2.28135794e-01, 6.74019694e-01, 1.17288455e-01,
          4.11095470e-01, -1.20730117e-01, 2.78158151e-02, 0.,
          2.07492486e-01, 1.06739032e+00, 9.22250569e-01,
          -1.22827053e-01, -3.24450396e-02, -1.54846177e-01,
          -3.88211459e-01, -1.44822255e-01, -1.12484634e+00,
          1.97727494e-02, -1.00880277e+00, -9.49642718e-01,
          -5.78694463e-01, 6.55489713e-02, 1.02868831e+00,
          1.31336451e+00, 1.42475295e+00, 1.94756162e+00, 7.66965687e-01,
          -5.27136803e-01, 5.27842622e-03, 4.12801862e-01,
          4.77595359e-01, 5.22289395e-01, 8.27036891e-03,
          -2.05694064e-01, -1.55412108e-01, -9.13146809e-02,
          7.56468028e-02, 5.81257403e-01, 5.51570803e-02, 7.68070757e-01,
          -4.82477397e-01, -1.09281433e+00, 4.33406800e-01,
          1.04588902e+00, 1.42009884e-01, 9.12554622e-01, 8.16298485e-01,
          7.80565798e-01, 2.20378101e-01, 7.98779964e-01, 1.56141460e+00,
          1.29630733e+00, 1.13128769e+00, -1.45090654e-01,
          -4.99071598e-01, 3.61554027e-02, -2.91095227e-01,
          -4.68476295e-01, 5.20560861e-01, 6.32738292e-01,
          2.75553524e-01, -3.29193287e-02, -9.97212306e-02,
          3.07505250e-01, 5.54594278e-01 ]
      - [ 1.02792668e+00, 9.14139509e-01, 4.78682527e-03,
          -1.50631025e-01, -5.52103102e-01, -8.31554413e-01,
          -1.64179564e-01, 5.38918003e-02, 8.79938424e-01,
          6.89579666e-01, 5.02930999e-01, -7.48717189e-01,
          -8.41402233e-01, -1.41007733e+00, -8.45256865e-01,
          -3.27653408e-01, -5.90576716e-02, -3.03579712e+00,
          -1.58991110e+00, -3.17503721e-01, 4.76620011e-02,
          4.77559149e-01, 9.36430216e-01, 7.97393799e-01, 1.31089437e+00,
          -1.05156489e-01, -7.78248429e-01, -7.57976174e-01,
          -1.27107978e-01, 5.39674889e-03, 1.18238881e-01,
          6.71676815e-01, -4.36293274e-01, -9.16753650e-01,
          -4.13128108e-01, 6.88970461e-02, 9.95435044e-02,
          7.61540115e-01, 1.65798455e-01, -2.11980522e-01,
          -3.52513760e-01, -3.58723402e-01, 3.33182335e-01,
          6.72609210e-01, 7.92824268e-01, 1.14689007e-01,
          -3.59487921e-01, -7.95580029e-01, 1.10868299e+00,
          1.68396401e+00, 8.54296625e-01, 4.55902100e-01,
          -9.55732286e-01, -2.40740347e+00, -1.51080739e+00,
          -1.89755142e-01, 1.17027438e+00, 4.97752100e-01,
          -2.48452008e-01, 3.54006767e-01, -5.64871788e-01,
          -5.68919659e-01, -6.58811331e-01, 1.04532290e+00 ]
      - [ 1.15180027e+00, 1.57741383e-01, -3.03896010e-01,
          -5.59158385e-01, -3.49298388e-01, -3.00402433e-01,
          5.92434183e-02, 1.25078082e-01, 1.13191426e+00, 1.46867597e+00,
          1.84384227e-01, -5.76346517e-01, -9.79808807e-01,
          -1.73126638e+00, -1.09725857e+00, -4.82202858e-01,
          1.30019987e+00, -2.45121813e+00, -1.84185815e+00,
          -1.27035606e+00, -1.19098894e-01, 5.42655662e-02,
          7.33410895e-01, 9.00512695e-01, 2.11481595e+00, 1.63682115e+00,
          -7.82255352e-01, -7.96046793e-01, -7.29295194e-01,
          -1.74016878e-01, 8.39750543e-02, 1.17414188e+00,
          -1.04719028e-01, -1.69699109e+00, -1.12755466e+00,
          4.77928907e-01, 5.29670894e-01, 7.98864841e-01,
          -3.11309487e-01, -2.04083130e-01, -7.42611945e-01,
          -1.51131392e-01, 2.71784902e-01, -1.86467797e-01,
          1.00285256e+00, 5.07882714e-01, 6.97693527e-01, 3.10709178e-01,
          -1.95262522e-01, 7.26423502e-01, 3.63209754e-01,
          6.58906698e-01, 7.22454607e-01, -3.26556623e-01,
          -1.48406029e+00, -7.82266200e-01, 1.60635382e-01,
          2.64959872e-01, -3.30402881e-01, 6.84197009e-01,
          -9.91661698e-02, -1.41618896e+00, -1.09669971e+00,
          -5.51508814e-02 ]
      - [ 3.63906860e-01, 3.98560986e-02, 5.63205242e-01, 1.18696070e+00,
          -2.21008599e-01, -4.12071854e-01, -1.14785755e+00,
          -1.12138379e+00, 2.13112056e-01, 3.07813972e-01,
          8.74131441e-01, 2.53278524e-01, 6.32059872e-02,
          -8.07028562e-02, 6.62747264e-01, 2.52827317e-01,
          6.80719092e-02, -1.57076967e+00, -4.80634153e-01,
          -1.18931448e+00, 3.56050014e-01, 5.26091099e-01,
          1.08137202e+00, 9.66295183e-01, 1.80447412e+00, 7.15115130e-01,
          -2.05529734e-01, -1.64993727e+00, -4.18562181e-02,
          -1.03660733e-01, 5.65979183e-01, 4.90803808e-01,
          -5.39879560e-01, -1.83293188e+00, -9.80156779e-01,
          -7.09757686e-01, 2.31557444e-01, 5.02725244e-01,
          1.39920366e+00, 2.96912551e-01, -1.33733153e+00,
          -3.57245654e-02, 1.28154004e+00, 9.19949412e-01,
          1.39013124e+00, 1.12308860e+00, 1.19170237e+00, 5.06391704e-01,
          1.00292003e+00, 1.01815414e+00, 8.43138218e-01, 6.84488952e-01,
          -1.03405714e-01, -6.65463686e-01, -9.87199664e-01,
          2.81435132e-01, 8.36728141e-02, -4.15427774e-01,
          4.14928854e-01, 1.32974970e+00, -2.66023129e-01,
          -1.93933797e+00, -1.04035687e+00, 4.42867339e-01 ]
      - [ 2.10133359e-01, -3.95422250e-01, 8.35873961e-01,
          5.57254434e-01, 1.43558428e-01, -1.02195597e+00,
          -6.04193866e-01, -8.23927104e-01, 5.70866354e-02,
          5.86746573e-01, 4.11644459e-01, 2.03460753e-01, 2.00055078e-01,
          -4.30332989e-01, -3.02696466e-01, -1.19535553e+00,
          1.05347919e+00, -2.38142371e+00, -1.45052063e+00,
          -9.08467114e-01, -9.28793252e-01, 4.95941818e-01,
          9.42639232e-01, 1.64959335e+00, 2.47977138e+00, 1.19640958e+00,
          -8.23907256e-01, -7.70520389e-01, -3.51106226e-01,
          5.30038178e-02, 5.41587710e-01, 1.40438330e+00, 7.26563871e-01,
          2.08975658e-01, -2.37842843e-01, -9.24277365e-01,
          -1.09945142e+00, 1.29233584e-01, 1.06675708e+00,
          8.58699501e-01, -1.53795943e-01, -5.98326921e-01,
          -1.56652224e+00, -1.42179048e+00, 2.10963458e-01,
          8.55467498e-01, 1.22582960e+00, 1.44436896e+00,
          -2.99101084e-01, 1.00561130e+00, 6.76293433e-01,
          8.27101648e-01, 4.54924703e-01, -6.61629975e-01,
          -1.17041922e+00, -3.29534411e-01, -3.32582556e-02,
          -1.11064285e-01, 4.92050260e-01, 5.65460682e-01,
          -5.48829399e-02, -7.86200523e-01, -1.38043416e+00,
          -2.82324761e-01 ]
      - [ -1.13236117e+00, -3.45671207e-01, 9.74057138e-01,
          1.74489582e+00, 2.22921386e-01, 6.68651983e-02,
          -1.15739429e+00, -8.30114365e-01, -2.76829243e-01,
          1.79859966e-01, 1.09972608e+00, 5.29373109e-01, 6.36666477e-01,
          6.13125443e-01, 6.66905344e-01, 5.69445133e-01,
          -4.27350670e-01, -1.22241962e+00, -1.01360595e+00,
          2.89152652e-01, 2.71404773e-01, 1.51835606e-01, 4.26039457e-01,
          1.02493501e+00, 8.46271634e-01, 4.30046380e-01,
          -1.74404159e-01, -8.56075883e-01, -2.14332879e-01,
          9.77940083e-01, 2.53446907e-01, -3.15556735e-01,
          8.43568325e-01, -8.48810732e-01, -2.92417979e+00,
          -2.41368818e+00, -1.38357627e+00, 6.57649338e-01,
          1.93943322e+00, 1.27396965e+00, -5.18313169e-01,
          -1.87761199e+00, -1.41130134e-01, 3.18077624e-01,
          1.11062920e+00, 1.28727806e+00, 2.01253510e+00, 2.21643353e+00,
          1.78270423e+00, 6.45477235e-01, 1.00379348e+00, 6.15611434e-01,
          8.64732116e-02, -1.25264502e+00, -5.32714009e-01,
          1.01136446e+00, 5.40722072e-01, -2.08990365e-01,
          -6.93980396e-01, -5.45078754e-01, -3.47044140e-01,
          -1.11649966e+00, -2.58184701e-01, -1.43312186e-01 ]
      - [ 1.44578946e+00, 4.00469333e-01, 2.86942154e-01,
          -3.03548813e-01, -1.03142059e+00, -2.60556787e-01,
          -3.85200083e-01, 7.53226876e-02, 8.37037206e-01,
          3.13547760e-01, 1.43971816e-01, -1.21051180e+00,
          -6.67909205e-01, -8.35505605e-01, -2.40573540e-01,
          4.47716594e-01, -2.84353465e-01, -1.91396725e+00,
          -9.77407932e-01, -1.14460245e-01, 6.41651392e-01,
          1.50108385e+00, 1.97467113e+00, 1.24456763e+00, 1.76551747e+00,
          -2.56720483e-01, -7.51711965e-01, -2.59670794e-01,
          4.13600892e-01, 1.04066110e+00, 1.93538114e-01, 8.64935517e-02,
          1.99103989e-02, -7.67082512e-01, -2.39558488e-01,
          -6.50385678e-01, -2.92073160e-01, 4.80877012e-01,
          9.75727618e-01, 1.24370284e-01, -9.91458952e-01,
          -1.60705164e-01, -4.63777892e-02, -2.28145197e-02,
          4.21054006e-01, -3.28700021e-02, 1.23583116e-01,
          -4.49405551e-01, 8.02215278e-01, 9.59994376e-01,
          1.13004112e+00, 9.94207859e-01, 4.13340807e-01,
          -1.16370253e-01, -8.27819347e-01, -4.62099500e-02,
          -5.85817039e-01, -7.25170791e-01, 3.31565976e-01,
          2.38980675e+00, 9.17400360e-01, -8.06274265e-02,
          -4.91542332e-02, 6.80898190e-01 ]
      - [ 1.23147273e+00, 7.76060700e-01, 1.03891097e-01,
          -6.34094596e-01, -1.26565313e+00, -1.49033642e+00,
          -1.99667180e+00, -4.36186641e-01, 3.61093640e-01,
          6.33212447e-01, -1.09412476e-01, -4.95957583e-01,
          -1.37534887e-01, -4.43466008e-02, -2.22010589e+00,
          -1.94860816e+00, -3.11270028e-01, -2.22314596e+00,
          -7.22585618e-01, -1.16792895e-01, 4.74730015e-01,
          6.37677014e-01, 9.24031794e-01, 8.23753357e-01, 1.54137278e+00,
          -3.92124563e-01, -1.25207043e+00, 1.50938556e-01,
          7.31702149e-01, 2.80824393e-01, -6.61649942e-01,
          -1.73128933e-01, -4.06894475e-01, -1.20750046e+00,
          -1.18919206e+00, -5.36267042e-01, -3.85490477e-01,
          -1.16699234e-01, 4.77248579e-01, 1.07856822e+00,
          -1.21993554e+00, -8.49373639e-01, -8.80667388e-01,
          2.06439167e-01, 9.17554379e-01, 3.58261645e-01, 1.15635979e+00,
          6.88561559e-01, 1.73908126e+00, 1.76336670e+00, 5.59121013e-01,
          2.67893553e-01, 1.39058053e-01, -8.69635224e-01,
          -2.04371476e+00, -1.31748760e+00, 8.45335186e-01,
          1.39243379e-01, -1.57518327e-01, -2.26917982e-01,
          -6.29992902e-01, -1.44838929e+00, -4.83885914e-01,
          1.29551864e+00 ]
      - [ 8.45442176e-01, -5.48260629e-01, -3.70854075e-04,
          1.89974383e-01, -7.57191330e-02, 2.40073040e-01,
          -7.40995586e-01, -5.90184689e-01, 6.85904741e-01,
          -4.31077689e-01, -6.61233842e-01, -3.05366486e-01,
          1.20015834e-02, -2.66417950e-01, -3.06570679e-01,
          3.95397872e-01, -3.50255162e-01, -1.86848152e+00,
          -1.36957216e+00, -1.30257797e+00, 4.24756333e-02,
          1.00236677e-01, 1.39420724e+00, 1.68946421e+00, 3.35876012e+00,
          1.40165102e+00, 4.83917266e-01, -1.42865241e+00,
          -1.60163179e-01, -3.84627670e-01, 8.88861597e-01,
          7.94959486e-01, -6.22786880e-01, -1.05850995e+00,
          -1.17059931e-01, -1.01997042e+00, -4.80561554e-01,
          5.57988703e-01, 2.99230486e-01, 6.83614910e-01,
          -1.52635121e+00, -1.67712212e-01, 4.66163129e-01,
          -8.10766280e-01, 2.82779694e-01, -3.09592009e-01,
          7.12123752e-01, 4.40473884e-01, -1.10919878e-01,
          1.17341030e+00, 5.92711687e-01, 1.50355005e+00, 8.36409032e-01,
          9.35778990e-02, 2.06527546e-01, -4.85067405e-02,
          -1.74568653e+00, -1.33868170e+00, 1.71412563e+00,
          2.42541599e+00, 4.62846488e-01, -1.86717772e+00,
          -1.72719932e+00, -4.40476924e-01 ]
      - [ 7.88975716e-01, 1.46005094e+00, 2.09171489e-01,
          -1.38634193e+00, -9.28595066e-01, -3.22959960e-01,
          -2.73370773e-01, -1.28245831e-01, -3.16760212e-01,
          -3.96282077e-01, -5.73642738e-02, -1.08334374e+00,
          8.57287943e-02, -9.03442442e-01, -5.49127877e-01,
          1.16983414e+00, 1.15590465e+00, -1.19976878e+00,
          -3.97928506e-01, -1.15174973e+00, -3.27533066e-01,
          -3.13558161e-01, -7.81747282e-01, -1.06298685e+00,
          -8.03628042e-02, -2.60044813e-01, -2.85407841e-01,
          -4.11747336e-01, -9.47253823e-01, -1.23773150e-01,
          -9.36803743e-02, 5.37496865e-01, -1.33981419e+00,
          -3.81260037e-01, 8.99583876e-01, -8.24970156e-02,
          -9.34601054e-02, 1.03149107e-02, -1.46425784e-01,
          4.57531691e-01, 1.31722414e+00, -1.12359256e-01,
          -1.70043096e-01, -3.22381169e-01, -5.83953440e-01,
          -8.39157104e-01, -4.13184106e-01, -1.18999505e+00,
          3.47798347e-01, -1.38519919e+00, -1.67803794e-01,
          -1.06570697e+00, -1.15937507e+00, -8.32773387e-01,
          -4.63902831e-01, 1.55809653e+00, 1.80695820e+00,
          -8.66292894e-01, -4.81838584e-01, -7.69941330e-01,
          -1.20658338e+00, -8.97739589e-01, -5.36823273e-01,
          9.63175297e-01 ]
      - [ 5.42166948e-01, 6.97181582e-01, -9.08572495e-01,
          -2.17041302e+00, -9.89974856e-01, -4.31822807e-01,
          -2.36877352e-01, -1.01156585e-01, -3.09145421e-01,
          -1.03015530e+00, 5.07824659e-01, -1.34067559e+00,
          -1.39415646e+00, -7.07469821e-01, -4.12051469e-01,
          1.04706419e+00, 1.32343280e+00, -3.48123938e-01,
          -6.05737031e-01, -8.38992119e-01, -1.03174651e+00,
          -8.91586244e-01, -1.66699365e-01, 0., -4.25220668e-01,
          -1.27245575e-01, -4.05482978e-01, 3.88810307e-01,
          -9.66760159e-01, -4.44926530e-01, -1.11798561e+00,
          8.41609538e-01, 3.64711285e-01, -9.51428413e-01,
          5.68155110e-01, -6.51079714e-01, -4.37851518e-01,
          -8.16526651e-01, -3.81227165e-01, 1.19082654e+00,
          9.71849203e-01, -2.41503995e-02, -6.18327335e-02,
          -4.35969204e-01, 2.23301843e-01, -5.94118714e-01,
          -9.94812369e-01, -1.39090329e-01, -3.58510166e-01,
          -1.61442578e+00, -1.03074348e+00, -1.14016734e-01,
          7.70490706e-01, 1.26184082e+00, -2.27081567e-01,
          5.87698758e-01, 1.07047760e+00, -1.77540350e+00,
          -4.40145373e-01, 5.97323000e-01, -2.13209987e-01,
          -5.46020210e-01, -7.58311331e-01, 1.18767075e-01 ]
      - [ 5.67687631e-01, -5.58848858e-01, -2.78330863e-01,
          -2.63633907e-01, -9.06721711e-01, -1.95347524e+00,
          -1.91051567e+00, -1.82415402e+00, -1.60433531e+00,
          -1.10624170e+00, 1.92580715e-01, 3.28502864e-01,
          7.17659295e-01, 7.30044603e-01, 1.36711228e+00, 1.69460833e+00,
          4.47254807e-01, 2.10619330e-01, 5.66597164e-01,
          -6.52591214e-02, -4.22135234e-01, -1.50101101e+00,
          -6.99875951e-01, -1.24243784e+00, -4.15653318e-01,
          -5.58020353e-01, 5.92644095e-01, 1.53539464e-01,
          -2.15521002e+00, -1.58645403e+00, -4.67467010e-01,
          1.74756780e-01, -8.17100465e-01, -1.12693942e+00,
          -8.05282950e-01, -1.06173360e+00, -7.34646201e-01,
          -5.35654128e-02, 1.17941566e-01, 9.67115819e-01,
          8.40489268e-01, -8.10758024e-02, 3.01457167e-01,
          -7.40300631e-03, 7.11135492e-02, -3.40649694e-01,
          5.32133520e-01, -1.60534620e-01, -7.60922194e-01,
          -1.03007340e+00, -7.66418993e-01, -8.63582611e-01,
          -3.12060624e-01, 3.86951059e-01, 1.66210726e-01,
          1.49013734e+00, 1.23306543e-01, -1.76783335e+00,
          -4.08269554e-01, -2.33701006e-01, 5.91241494e-02,
          -5.61474800e-01, -1.31179225e+00, 3.49548087e-02 ]
      - [ 2.56753657e-02, 3.81415159e-01, 1.28897205e-01,
          -5.40462613e-01, -2.57541031e-01, -4.32050794e-01,
          -2.68123895e-01, -7.09212124e-01, -7.01164544e-01,
          -5.05576134e-01, 4.31793481e-01, -2.19091415e-01,
          5.39077818e-01, 6.62391603e-01, -4.87225443e-01,
          2.71475434e-01, 8.77996922e-01, 4.30247664e-01,
          -2.87934452e-01, -7.24797174e-02, -7.96900153e-01,
          -6.90078259e-01, -5.15661001e-01, -2.66961873e-01,
          6.51783403e-03, 5.11463396e-02, 8.38890195e-01,
          -5.98336697e-01, -5.23103952e-01, -7.85741329e-01,
          6.17269836e-02, 7.38082826e-01, 8.98222923e-01, 8.72946531e-02,
          2.99747407e-01, -7.96456099e-01, -8.14026594e-01,
          -2.17474505e-01, -2.62496561e-01, 1.24336398e+00,
          1.57508016e+00, -3.83408606e-01, -1.57553661e+00,
          -1.54788733e+00, -3.77420783e-01, -1.94820881e-01,
          -2.90273190e-01, 5.24396598e-01, -6.82087541e-01,
          -1.07439709e+00, -1.38817847e-01, -6.16489589e-01,
          1.28086716e-01, 5.21305561e-01, -5.78991890e-01,
          4.10424739e-01, 1.15615261e+00, -7.18279541e-01,
          -2.44480371e-01, 1.19999535e-01, -4.34708774e-01,
          -3.45454037e-01, -3.34305882e-01, -3.52537751e-01 ]
      - [ -9.99909878e-01, -4.98534977e-01, 1.68673956e+00,
          9.19563174e-02, -2.07906559e-01, -2.79982001e-01,
          -3.68540555e-01, -3.97614151e-01, -5.31721532e-01,
          -2.23201931e-01, 9.55988467e-01, 4.17731553e-01,
          9.46189702e-01, 1.09220231e+00, 9.25121188e-01, 1.97491324e+00,
          -1.92929566e-01, 4.44091082e-01, 6.14514887e-01,
          7.59372592e-01, 5.48469909e-02, -1.19294155e+00,
          -5.38901925e-01, -8.45369637e-01, -1.58836496e+00,
          -2.77000278e-01, -3.20988953e-01, 2.24553153e-01,
          -9.04379904e-01, -1.45853055e+00, -7.82508492e-01,
          9.31047499e-01, 6.69155300e-01, 3.71551275e-01,
          -4.65299010e-01, -1.01301110e+00, -8.09986532e-01,
          -1.77521491e+00, -5.59931576e-01, 1.38389182e+00,
          1.42584693e+00, -2.19772220e+00, -2.79621184e-01,
          -4.59928244e-01, 2.50505865e-01, 1.83334574e-01,
          3.64262432e-01, 4.13924366e-01, -2.24536106e-01,
          -8.01414847e-01, -5.91594636e-01, -8.03699076e-01,
          -6.90731227e-01, -6.24299943e-01, -1.93963438e-01,
          1.24641788e+00, 1.63944674e+00, -1.48207867e+00,
          -1.96165836e+00, -1.14266181e+00, 1.90070972e-01,
          5.90782881e-01, 5.48866205e-02, -1.75652996e-01 ]
      - [ 1.80852425e+00, 8.40056598e-01, -5.89401126e-01,
          -2.50382280e+00, -1.13902831e+00, 5.36348820e-01,
          1.14129391e-02, -2.71964762e-02, -4.79998857e-01,
          -1.13218725e+00, -5.40385425e-01, -7.04816163e-01,
          -2.18156457e+00, -7.27845907e-01, -3.70391607e-01,
          2.11178970e+00, -4.37238723e-01, -3.71635109e-01,
          4.61975455e-01, 1.16775958e-02, -1.05484053e-01,
          2.45362949e-02, 0., -3.63356322e-02, -3.61134171e-01,
          -6.72960997e-01, -3.88917595e-01, 8.84459853e-01,
          1.19608259e+00, -9.29551423e-02, -4.60677713e-01,
          -3.86509269e-01, -9.21005189e-01, -6.99402213e-01,
          -3.05538386e-01, -1.61764932e+00, -5.09260893e-01,
          -8.87453258e-02, 2.71593094e-01, 1.51148927e+00,
          1.13829589e+00, -4.52319711e-01, -2.03126073e-01,
          -5.05337000e-01, -6.71928942e-01, -1.69270968e+00,
          -8.94542217e-01, -7.98774719e-01, -3.99714932e-02,
          -8.81094575e-01, -5.79595745e-01, 5.26141047e-01,
          8.12031209e-01, 9.97184515e-01, -1.46801665e-01,
          6.46755278e-01, 2.22129151e-01, -1.28997123e+00,
          1.22285746e-01, 1.12120414e+00, 1.26618111e+00,
          -2.33502924e-01, 1.00063324e-01, 1.25309587e-01 ]
      - [ 1.19413519e+00, 5.75627148e-01, -6.89798057e-01,
          -1.61083150e+00, -1.22859216e+00, -2.98920572e-01,
          -8.26178133e-01, -1.34255767e+00, -1.00473070e+00,
          -1.36577976e+00, -7.23365322e-03, -7.08770573e-01,
          4.53972429e-01, 4.23480719e-01, -1.37828660e+00,
          -1.32102847e-01, -3.05079781e-02, 1.24283209e-01,
          5.79938769e-01, 7.87506759e-01, -1.19697660e-01,
          -6.62494123e-01, -9.03730273e-01, -1.06335616e+00,
          -7.55535483e-01, -1.18309617e+00, 4.33118641e-02,
          3.30451548e-01, -2.09469065e-01, -1.01087856e+00,
          -6.51631594e-01, 8.03140253e-02, -3.16467613e-01,
          -8.31818700e-01, -6.50989354e-01, -1.03113532e+00,
          -1.43430936e+00, -9.68776524e-01, 1.60590053e-01,
          1.81584489e+00, 1.27520502e+00, -1.55685985e+00,
          -1.89066052e+00, -1.41990638e+00, -7.10553110e-01,
          -1.01270199e+00, -2.88602233e-01, 1.08195603e-01,
          -6.60838723e-01, -8.79748404e-01, -3.21970999e-01,
          -3.43815178e-01, 1.62127852e-01, 5.68435609e-01,
          -5.77853441e-01, -1.33470327e-01, 1.51675689e+00,
          -1.27162731e+00, -5.56449115e-01, -1.81248903e-01,
          -1.24822783e+00, -4.93619859e-01, -7.15632260e-01,
          2.31358688e-03 ]
      - [ -3.59405428e-01, -7.02950478e-01, -1.23417044e+00,
          -1.34872639e+00, -6.06753409e-01, -3.29685926e-01,
          -6.40757322e-01, -1.11728489e+00, -2.02601933e+00,
          -1.78198659e+00, -3.70164290e-02, -4.90149111e-01,
          1.11166157e-01, 1.09892748e-01, -5.75469375e-01,
          1.38275552e+00, 1.05873480e-01, 4.42351341e-01, 4.59136814e-01,
          -2.99974799e-01, -5.83174944e-01, -1.35914910e+00,
          -5.86158872e-01, 5.55250682e-02, 5.84919825e-02,
          -3.62710096e-02, 8.40262592e-01, -3.74284565e-01,
          -7.37232447e-01, -1.32385528e+00, -7.22869456e-01,
          1.08600450e+00, 4.72487062e-01, -4.42850560e-01,
          -9.77975845e-01, -1.11976039e+00, -1.36369371e+00,
          -7.21054971e-01, -5.45595028e-02, 1.61831570e+00,
          1.30722558e+00, -4.30301756e-01, -1.41776055e-01,
          -1.31562138e+00, -1.59036648e+00, -1.36479056e+00,
          -8.33713487e-02, 2.76065022e-01, -1.40328515e+00,
          -9.14738834e-01, 1.40162691e-01, -6.19834483e-01,
          8.95803690e-01, 1.00206983e+00, 4.09239411e-01, 1.28214395e+00,
          -3.43263179e-01, -1.26111817e+00, 7.83935726e-01,
          1.15101385e+00, 7.75430977e-01, -7.92946756e-01,
          -1.40790796e+00, -8.32149208e-01 ]
      - [ -7.91923031e-02, -2.44747210e+00, -1.95274556e+00,
          -2.45927620e+00, 2.06784651e-01, 1.81008601e+00,
          1.04632771e+00, 1.45410359e-01, 2.83868790e-01, 1.42661476e+00,
          3.27338487e-01, -1.19383538e+00, -1.23017454e+00,
          4.55178201e-01, -4.23293710e-01, -1.22242248e+00,
          1.90481770e+00, 1.85376358e+00, 2.14024234e+00, 2.88355500e-01,
          -1.77348614e+00, -1.39875197e+00, 6.10417664e-01,
          1.17778730e+00, 9.63752985e-01, 4.17704630e+00, 1.80146337e+00,
          -6.48133978e-02, -1.85286844e+00, -5.02887428e-01,
          -3.03522319e-01, 6.77496672e-01, 2.43875790e+00,
          4.19801980e-01, -1.49165571e+00, 7.98289299e-01,
          -2.42789000e-01, -5.91016822e-02, 3.98442715e-01,
          8.68212521e-01, -9.45864320e-01, -2.79526567e+00,
          -1.61145282e+00, 4.02522922e-01, 6.18955195e-01,
          6.81140780e-01, 1.07252109e+00, 3.37486744e+00,
          -2.84993529e+00, -2.69633055e+00, -1.37405109e+00,
          1.04309464e+00, 2.61658216e+00, 1.32228935e+00,
          -2.81749040e-01, -2.13763332e+00, -9.06826198e-01,
          -8.02622020e-01, -3.16981286e-01, 1.87607837e+00,
          1.70131063e+00, -3.83897692e-01, -2.08208656e+00,
          -1.74022901e+00 ]
      - [ -2.10101664e-01, -1.52336907e+00, 2.62002259e-01,
          1.48470581e+00, 9.81450826e-02, -8.26640069e-01,
          -1.22409081e+00, -2.32768106e+00, -1.29380536e+00,
          1.75232843e-01, 3.96402180e-01, 1.63097560e+00, 1.70688510e+00,
          2.58134294e+00, 2.83099699e+00, 9.24050033e-01,
          -3.53514515e-02, 6.84526265e-01, 1.66755116e+00,
          1.31298542e+00, -2.37869829e-01, -2.56698102e-01,
          -1.52017057e-01, 1.19198799e-01, 3.40854347e-01,
          5.17025709e-01, 1.47786513e-01, -3.61731589e-01,
          9.12479237e-02, -5.08286774e-01, -2.81114858e-02,
          3.38193290e-02, -5.46991646e-01, -3.47512573e-01,
          -2.03295541e+00, -3.15499693e-01, 3.42648208e-01,
          1.18505202e-01, 8.61591935e-01, -1.93403840e-01,
          2.04090834e-01, 7.07893372e-01, 4.75623012e-01, 9.78030562e-01,
          1.00032985e+00, 1.40351951e+00, 5.25165856e-01, 5.28832734e-01,
          -7.97986984e-01, 2.96689361e-01, -7.92297661e-01,
          5.79921808e-03, 5.89768179e-02, 1.45547926e+00, 8.91322732e-01,
          -9.38450396e-02, -1.07369554e+00, -7.63458848e-01,
          1.41902581e-01, 3.46314937e-01, 1.22441292e+00, 1.47477210e-01,
          -1.68208826e+00, -1.19614148e+00 ]
      - [ -1.00386834e+00, -8.08066547e-01, 7.03764379e-01,
          4.87189054e-01, 4.26503569e-01, -2.25291848e-02,
          8.43216851e-02, -1.07515419e+00, -1.01271212e+00,
          -4.34083700e-01, 2.00120822e-01, 7.50822127e-01,
          1.24341464e+00, 1.20809388e+00, -1.18374795e-01,
          -4.52694327e-01, 2.11565232e+00, 1.54268467e+00,
          5.81071734e-01, 1.35226160e-01, -4.23305720e-01,
          2.99192183e-02, -8.02514479e-02, 5.11324346e-01,
          1.14422572e+00, 8.64666343e-01, 1.38370585e+00, 1.98238157e-02,
          -5.14632046e-01, 4.17483672e-02, 5.38183689e-01,
          7.32386112e-02, 2.65317321e+00, 1.31286645e+00, 1.87144265e-01,
          -4.46257263e-01, -1.02979410e+00, -7.73964942e-01,
          4.13838953e-01, 1.38081455e+00, 1.78201282e+00,
          -3.70665640e-01, -1.94813514e+00, -3.04827976e+00,
          -1.01495433e+00, 4.10812274e-02, 1.25109184e+00,
          2.53790021e+00, -1.56457722e+00, -1.40077281e+00,
          -1.42982829e+00, -3.50524724e-01, -1.60842106e-01,
          -4.29774411e-02, -5.19884706e-01, -9.93289232e-01,
          -1.02542400e+00, 2.49324366e-01, 1.81859165e-01,
          5.68139493e-01, 4.22677621e-02, -5.64865828e-01,
          -1.22784340e+00, -1.41387689e+00 ]
      - [ -1.64639437e+00, -1.03943002e+00, 6.92750275e-01,
          2.17712307e+00, 8.82433116e-01, 7.51738966e-01, 5.09693265e-01,
          7.31772557e-02, -6.46309793e-01, -1.06416535e+00,
          -5.29079199e-01, 1.39936590e+00, 1.09644151e+00,
          2.62858462e+00, 2.80517745e+00, 1.33432722e+00,
          -3.89904112e-01, 1.19034481e+00, 8.65216315e-01,
          4.96050715e-01, -6.47585154e-01, -7.06677794e-01,
          1.49321444e-02, -6.53773546e-01, -1.04859948e+00,
          5.92985451e-01, 4.15345699e-01, 9.69870567e-01,
          -4.84036028e-01, 3.20226610e-01, -5.38246393e-01,
          -1.15492843e-01, 1.21894944e+00, 5.78873694e-01,
          -1.31488585e+00, -5.70132375e-01, -8.58957648e-01,
          1.55396864e-01, 6.25184596e-01, 1.04306698e+00,
          -3.12440217e-01, -5.94951987e-01, 1.81063816e-01,
          -8.20834935e-01, 5.69840014e-01, 7.51669288e-01,
          1.07220817e+00, 1.12910223e+00, -3.14035751e-02,
          -8.86001527e-01, -7.31188059e-01, -3.49197567e-01,
          1.02637303e+00, 3.74280542e-01, 1.21756516e-01,
          -2.10782841e-01, -3.03812385e-01, 1.18481502e-01,
          -5.49671113e-01, -7.87816763e-01, 3.53383780e-01,
          -1.31110564e-01, -1.26566485e-01, -3.57853204e-01 ]
      - [ 4.40263391e-01, -9.69639480e-01, 4.17945176e-01,
          -1.38156998e+00, -9.78041947e-01, 9.75761414e-01,
          2.29243457e-01, 5.72920963e-02, -4.74764168e-01,
          -3.28053311e-02, 1.17436469e+00, -2.10063785e-01,
          -1.06749272e+00, 7.76486754e-01, 1.13834858e+00,
          1.20423806e+00, -1.67539907e+00, 9.50334370e-01,
          6.57105327e-01, 1.54627129e-01, -3.95645238e-02,
          1.96830738e+00, 2.37504387e+00, 1.34726989e+00,
          -6.31863058e-01, -4.10444736e-01, -1.24617264e-01,
          8.59386861e-01, 1.71658337e+00, 1.67691350e+00,
          -3.16249996e-01, -3.03670466e-01, 5.14429986e-01,
          1.11884034e+00, -3.76339741e-02, -1.25338888e+00,
          -9.67952311e-01, 1.26670682e+00, 1.46089077e+00,
          6.88884735e-01, 1.18975960e-01, -1.05701888e+00,
          2.07183268e-02, -3.82015914e-01, -6.30626917e-01,
          1.30189389e-01, -1.78262427e-01, 1.27963257e+00,
          -1.81614473e-01, -4.65431541e-01, -1.12391019e+00,
          2.93710446e+00, 1.19337177e+00, 1.18562305e+00, 5.70666015e-01,
          6.82069123e-01, -2.97368622e+00, -1.49474180e+00,
          9.29550409e-01, 2.00215268e+00, 2.50271702e+00, 1.96792758e+00,
          1.40195325e-01, -9.34037447e-01 ]
      - [ -4.49794501e-01, 2.34356642e-01, -3.52732867e-01,
          -3.31181943e-01, -8.42863858e-01, -1.93489933e+00,
          -2.30636263e+00, -1.33721113e+00, -1.25485694e+00,
          -6.17198944e-01, -1.59909499e+00, 1.43699968e+00,
          1.81886208e+00, 1.10425973e+00, -1.37084854e+00,
          -2.08351898e+00, -1.50585577e-01, 8.41020465e-01,
          1.73756528e+00, 2.77077723e+00, -2.01919779e-01,
          -6.33762062e-01, -3.84651393e-01, -1.68506920e+00,
          1.37370721e-01, -7.82650709e-01, -4.74534243e-01,
          1.74230695e+00, 1.41241238e-01, -2.20145524e-01,
          -4.72647369e-01, -7.09003627e-01, 1.03871024e+00,
          2.48582214e-02, -1.95391631e+00, -8.42960835e-01,
          -1.53848875e+00, -4.42356646e-01, -1.31831437e-01,
          7.87613451e-01, 1.66977599e-01, -1.39448094e+00,
          -1.48767245e+00, -1.31337893e+00, -7.67196834e-01,
          -3.69718820e-01, 2.94790566e-01, 1.73806894e+00,
          -1.15353429e+00, -1.51301241e+00, -1.75982082e+00,
          5.84687412e-01, 1.41470516e+00, 1.43697464e+00,
          -8.48129869e-01, -2.28749251e+00, -1.49155939e+00,
          2.61795074e-01, -6.42061710e-01, 1.97978795e-01,
          -3.74880552e-01, -1.35971919e-01, -8.27860653e-01,
          -1.50841916e+00 ]
      - [ -9.82405245e-01, -1.66385007e+00, -7.41393566e-01,
          -1.27270862e-01, -1.77788273e-01, 3.35588932e-01,
          -1.17426705e+00, -6.78136766e-01, -1.18925679e+00,
          -9.74913359e-01, -1.07331824e+00, 6.37225389e-01,
          1.27340007e+00, 1.90724742e+00, 4.90343869e-01,
          -6.43485069e-01, -1.30392343e-01, 8.73974562e-01,
          1.09611583e+00, 1.40919745e+00, -4.01698679e-01,
          -1.02538466e+00, 3.06811154e-01, -1.55676082e-01,
          7.74957418e-01, 5.51121354e-01, 6.02799475e-01, 4.20644760e-01,
          -2.73162335e-01, -2.40780056e-01, -1.40448228e-01,
          7.08132923e-01, 7.00580895e-01, 3.02430183e-01,
          -1.05818427e+00, -2.35666022e-01, -8.70567858e-01,
          -1.91979870e-01, 5.64477265e-01, -1.74657658e-01,
          1.43645197e-01, 1.41115576e-01, -6.10972524e-01,
          -4.53112155e-01, -8.54522049e-01, -6.55240297e-01,
          6.68312490e-01, 9.72445190e-01, -1.49928641e+00,
          -1.87425211e-01, -1.10287917e+00, 1.24886990e+00,
          1.18774736e+00, 2.08617043e+00, 2.07441664e+00, 4.14722502e-01,
          -2.46189737e+00, -1.01972711e+00, 1.36982179e+00,
          2.19655514e+00, 5.66540122e-01, 3.44899744e-01,
          -4.87846494e-01, -1.83891249e+00 ]
      - [ -3.14970136e-01, -4.66012597e-01, 1.65975785e+00,
          1.51442897e+00, 2.20250309e-01, -9.57535625e-01,
          -8.04078817e-01, -1.71656644e+00, -9.69699740e-01,
          -6.76676691e-01, 4.10553604e-01, 2.07105374e+00,
          2.41168976e+00, 1.99045265e+00, 1.68251538e+00, 5.35504997e-01,
          -7.26291776e-01, 1.45141240e-02, 1.33373892e+00,
          7.81668842e-01, 6.94350302e-01, -1.00022279e-01,
          -5.00362694e-01, -6.12266123e-01, -4.22923476e-01,
          -5.04962385e-01, 1.13642991e+00, 3.42421867e-02,
          1.04582220e-01, -1.13953404e-01, 7.80590415e-01,
          -6.85765386e-01, -1.29457724e+00, -7.29242444e-01,
          -9.60549057e-01, -1.14787674e+00, 7.87809074e-01,
          8.99358213e-01, 9.73087013e-01, -2.08276853e-01,
          -4.05809749e-03, -1.23797715e-01, 3.21023822e-01,
          1.07733107e+00, 7.03537524e-01, 6.76107764e-01, 7.57041216e-01,
          6.29445985e-02, 6.64940536e-01, 8.75217438e-01, 8.88417184e-01,
          -4.68480051e-01, -1.44785249e+00, 1.93748817e-01,
          8.71565461e-01, 4.23783004e-01, -6.50797129e-01,
          -6.25058234e-01, 4.68377173e-01, 5.81728518e-02,
          -7.94868097e-02, -3.25902879e-01, -4.56987441e-01,
          -4.44893420e-01 ]
      - [ -1.45996559e+00, 3.81416321e-01, 2.17725945e+00,
          2.10181808e+00, 8.65847290e-01, -1.00764787e+00,
          -1.42308319e+00, -1.98469770e+00, -9.62381721e-01,
          -1.20146096e+00, -1.60666615e-01, 1.14839613e+00,
          2.68465209e+00, 1.75116682e+00, -1.32093966e-01,
          -1.01027086e-01, 1.31384814e+00, -4.44725126e-01,
          1.43595695e-01, 1.13468575e+00, 2.59068072e-01, 7.10600615e-01,
          -1.15534820e-01, 7.14782476e-01, 4.80858475e-01,
          -1.49690941e-01, 6.72864914e-01, -2.76097376e-02,
          7.15894938e-01, 2.17492893e-01, 8.70024621e-01, 1.58962458e-01,
          1.91702783e+00, 1.80738926e+00, 1.13874972e+00,
          -1.18328059e+00, -8.57286274e-01, -9.49055970e-01,
          9.65780672e-03, 1.57130122e+00, 2.54775500e+00, 9.12487209e-01,
          -1.83048046e+00, -3.68574309e+00, -1.08737290e+00,
          6.37472421e-02, 1.58867884e+00, 2.11982298e+00,
          -8.41310441e-01, 3.41028214e-01, 1.51425693e-02,
          -3.42367381e-01, -4.18185860e-01, 2.64875889e-01,
          -2.72821113e-02, -1.11100519e+00, 4.20571834e-01,
          8.21912348e-01, -7.56615624e-02, -4.57755834e-01,
          -3.24335098e-01, -4.77500021e-01, -5.76634884e-01,
          -1.48817748e-01 ]
      - [ -1.21047342e+00, -1.13548899e+00, 8.96559119e-01,
          1.98838055e+00, 5.38910389e-01, 2.55630523e-01,
          -3.96740943e-01, -2.82280982e-01, -1.28718507e+00,
          -1.13396025e+00, 2.07354233e-01, 1.84711730e+00,
          1.69112861e+00, 1.87437236e+00, 1.50831461e+00, 7.46261239e-01,
          -1.13145208e+00, 8.80320430e-01, 1.03222263e+00,
          1.05863345e+00, 1.98859140e-01, 1.79465607e-01,
          -7.38466263e-01, -2.49618039e-01, -1.37798715e+00,
          -9.49334204e-01, 1.89762220e-01, -7.26467296e-02,
          1.01639235e+00, 5.88737465e-02, -4.62001920e-01,
          -4.47240740e-01, 4.90969896e-01, 6.69371605e-01,
          -4.65684205e-01, -1.01909578e+00, 8.77763703e-03,
          9.22535136e-02, 1.62461430e-01, 2.06426024e-01, 4.66416299e-01,
          -7.77655661e-01, 2.63619982e-02, 3.85716319e-01,
          1.96603552e-01, 4.66735363e-01, -3.08523905e-02,
          5.14543891e-01, 1.05800462e+00, 4.66137305e-02, 6.91786706e-01,
          -3.34662229e-01, -9.02084783e-02, -1.86552569e-01,
          1.61967576e-01, 4.93395716e-01, 8.88956487e-02, 4.00235623e-01,
          -1.75392836e-01, -1.39255166e+00, -2.79257409e-02,
          2.82566458e-01, 4.91776556e-01, 2.74457902e-01 ]
      - [ 7.32781351e-01, 1.90596139e+00, 1.50166869e+00, 6.34869397e-01,
          -4.87422675e-01, -9.90820169e-01, -7.31152177e-01,
          8.07231665e-02, -7.29948997e-01, -7.94574678e-01,
          6.73524022e-01, -2.27552906e-01, 7.91022778e-01,
          5.47206879e-01, 8.91572833e-01, 1.51697874e+00,
          -2.18552804e+00, 3.56544673e-01, 6.93420887e-01,
          1.01545370e+00, 1.17486155e+00, 1.61035180e+00, 8.34789038e-01,
          -1.44073367e-01, 5.04502118e-01, -2.26659155e+00,
          -3.92039418e-01, 1.81837642e+00, 1.83359253e+00,
          2.01937056e+00, 2.37404540e-01, -7.70538390e-01,
          -1.29714036e+00, 6.54466867e-01, 6.76560104e-01,
          -2.05120277e+00, -3.17362882e-02, 5.68781137e-01,
          1.25539649e+00, 1.58830404e-01, 3.93890887e-01, 8.15756261e-01,
          1.27248728e+00, -1.68323070e-01, -7.10550964e-01,
          -7.43130684e-01, 1.89329952e-01, -1.33284307e+00,
          1.07234204e+00, 6.12749994e-01, -1.00492924e-01,
          6.19683683e-01, -1.89875677e-01, 4.57957268e-01,
          1.10841823e+00, 1.98604059e+00, -1.09617913e+00,
          -1.05538464e+00, 9.09915686e-01, -5.74443340e-02,
          1.54454792e+00, 1.45355046e+00, 1.29773903e+00, 1.29176080e+00 ]
      - [ -6.92139089e-01, 1.01852620e+00, 1.39779413e+00,
          7.23521292e-01, -9.67009544e-01, -2.37426877e+00,
          -2.06396747e+00, -1.42220175e+00, -1.46045327e+00,
          -1.65786040e+00, -7.95163035e-01, 1.93425608e+00,
          1.85944760e+00, 6.70754075e-01, -8.50663841e-01,
          -9.33264196e-01, -2.37886906e+00, 1.85941756e-01,
          7.49859333e-01, 2.78283978e+00, 1.64799023e+00, 1.14902258e+00,
          1.33783489e-01, -1.61885083e+00, -1.10558808e+00,
          -4.33232832e+00, -1.21760190e+00, 1.10611761e+00,
          2.31894708e+00, 2.37557992e-01, 9.87620279e-02,
          -1.46111333e+00, -1.02472387e-01, -5.39325416e-01,
          -9.39161122e-01, -2.20139384e+00, -1.12194471e-01,
          -4.81693715e-01, -3.97013366e-01, 1.90400958e-01,
          4.92007107e-01, -9.92691636e-01, -7.62891710e-01,
          -6.93180084e-01, -9.65655625e-01, -4.29216772e-01,
          4.83958691e-01, -4.81943712e-02, 8.96691918e-01,
          8.17010701e-01, 2.78207481e-01, -2.89259732e-01,
          -8.16469252e-01, 5.57326794e-01, -2.20567673e-01,
          -4.90152299e-01, 4.86563176e-01, 2.71304250e-01,
          -2.37994015e-01, -1.74826765e+00, -1.10852230e+00,
          -3.93637866e-01, 5.66020131e-01, 7.02986836e-01 ]
      - [ -1.63906896e+00, -4.23485458e-01, 1.00161779e+00,
          1.01131499e+00, -7.74932027e-01, -7.83634722e-01,
          -1.81019855e+00, -1.36905313e+00, -1.79281628e+00,
          -2.37335587e+00, -6.75090432e-01, 1.21818042e+00,
          2.56311655e+00, 2.31448054e+00, 8.78481269e-01, 3.05116475e-01,
          -1.27014172e+00, 8.10006797e-01, 1.79491615e+00,
          1.11127400e+00, 2.56514072e-01, -2.33834967e-01,
          -9.30917114e-02, -9.92148221e-01, -7.62072280e-02,
          -4.66410577e-01, 1.31411779e+00, 2.04399243e-01,
          -5.70639409e-03, -1.53774889e-02, 7.63298035e-01,
          -2.69199282e-01, -4.58114088e-01, 9.16016921e-02,
          -1.46661475e-01, -1.94807041e+00, -5.02840340e-01,
          3.65305603e-01, 6.25455320e-01, -2.32129052e-01,
          2.35247165e-01, 5.89410722e-01, 2.10543834e-02,
          -1.81367382e-01, -6.48925781e-01, -1.01354575e+00,
          2.93289453e-01, -5.12727559e-01, -3.66329581e-01,
          8.24585736e-01, 8.71729910e-01, 8.57234240e-01,
          -5.32306075e-01, 7.91870296e-01, 2.12837839e+00,
          1.11347747e+00, -1.59886181e+00, -7.38621652e-01,
          1.72643733e+00, 1.39919579e+00, 3.19418967e-01,
          -2.66350895e-01, -3.34702134e-01, -1.41857326e+00 ]
      - [ -7.74881661e-01, 8.99603739e-02, -1.69407710e-01,
          -2.25113541e-01, 1.30268216e-01, 7.18547404e-02,
          9.35805917e-01, 7.02243149e-01, 3.93942893e-01, 9.29136693e-01,
          1.07741833e-01, -4.83689547e-01, -4.31031883e-01,
          -4.39012378e-01, -8.74375045e-01, -9.22550917e-01,
          1.10727680e+00, 1.01905847e+00, -8.61627996e-01,
          -4.59844500e-01, -7.89025366e-01, 8.64024907e-02,
          -5.72628438e-01, 3.50349367e-01, 3.41499239e-01,
          5.53821206e-01, 1.49039015e-01, -8.10474083e-02,
          -3.17604512e-01, -3.32210809e-01, -2.23750204e-01,
          6.33399665e-01, 1.99642420e+00, 1.99125767e+00, 1.11790013e+00,
          7.46703371e-02, -1.36501300e+00, -7.03136683e-01,
          -6.33188128e-01, 8.08759391e-01, 1.49018979e+00,
          -2.63959616e-01, -2.12233663e+00, -3.13001513e+00,
          -1.04222906e+00, -3.81150991e-01, -5.37824392e-01,
          1.19274163e+00, -9.19343650e-01, -6.27715945e-01,
          9.08152163e-02, -4.64747548e-02, -3.32076997e-01,
          -1.05336857e+00, -9.38015878e-01, -4.85769391e-01,
          6.21506751e-01, 1.22269189e+00, -4.61662322e-01,
          -9.41008508e-01, -1.70476079e-01, 7.11772084e-01,
          3.63703549e-01, -5.46047568e-01 ]
      - [ -2.57728124e+00, -1.72855675e-01, 2.37964940e+00,
          7.58998275e-01, 1.02861297e+00, 2.01192284e+00, 1.84657156e+00,
          1.60544372e+00, 3.42056900e-01, 2.02467948e-01,
          -2.38881037e-02, 1.21495634e-01, 1.04049809e-01,
          2.29909718e-01, -1.15216516e-01, 1.17986441e+00,
          -2.93307513e-01, 1.34842443e+00, -7.25450516e-01,
          -3.57517213e-01, 3.65634441e-01, 3.00760448e-01,
          -6.25608087e-01, -8.76486778e-01, -3.13864541e+00,
          -1.42047393e+00, -4.94110703e-01, 1.22286057e+00,
          4.38593656e-01, 1.12205148e+00, -3.50887984e-01,
          -7.26026833e-01, 2.41007733e+00, 2.31787682e+00,
          -1.00798678e+00, -2.16137171e+00, -1.31472147e+00,
          -1.44143081e+00, -1.71455765e+00, 1.56719172e+00,
          1.18463099e+00, -2.05779004e+00, -9.68342960e-01,
          -1.39833462e+00, -7.49834299e-01, -7.64876544e-01,
          2.17177436e-01, 1.40822029e+00, 1.71448874e+00,
          -1.42095566e+00, 5.65797091e-01, -7.65528560e-01,
          -2.93423563e-01, 5.32616138e-01, -4.09759790e-01,
          -7.85347879e-01, 1.95063353e+00, 1.43336880e+00,
          -1.73344529e+00, -3.19335651e+00, -1.18736386e+00,
          1.25555539e+00, 1.08600283e+00, 7.43972361e-01 ]
      - [ 6.71445787e-01, 8.54228437e-01, -4.25245851e-01,
          -1.45547450e+00, -8.34113359e-01, 1.18493497e+00,
          1.03094530e+00, 1.53044057e+00, 9.37159359e-01, 8.91340151e-02,
          -3.90401065e-01, -2.13480973e+00, -2.12653303e+00,
          -1.11039031e+00, -1.30753851e+00, 1.00236082e+00,
          -1.23912357e-01, -9.55779016e-01, -1.19534481e+00,
          4.66382265e-01, 3.01021576e-01, 1.30950558e+00, 8.06548476e-01,
          3.89880985e-01, -2.00395420e-01, -6.31563902e-01,
          -1.33678937e+00, 9.85281765e-01, 1.44924128e+00,
          8.01282525e-01, 3.08698088e-01, 4.93380055e-02, 6.53323293e-01,
          1.20378602e+00, 1.37159765e+00, 9.91153158e-03,
          -3.47388268e-01, -1.93167597e-01, 1.54933836e-02,
          4.83947605e-01, 1.25387534e-01, -7.68878520e-01,
          -3.89949501e-01, -1.08256102e+00, -1.79944777e+00,
          -1.55849707e+00, -9.82488334e-01, -1.33696926e+00,
          -6.58182442e-01, -9.25866485e-01, -3.98226790e-02,
          1.31812108e+00, 1.13519943e+00, 1.18353389e-01,
          -3.75965595e-01, -2.86282361e-01, 3.62932622e-01,
          3.02677959e-01, -1.47492364e-01, 1.11226964e+00,
          1.36746299e+00, 7.57167220e-01, 1.31206477e+00, 1.24790527e-01 ]
      - [ 3.19334358e-01, 1.18076062e+00, -1.45585048e+00,
          -2.01841855e+00, -5.08988321e-01, -2.63150968e-02,
          3.33588481e-01, 1.03261197e+00, 3.58141243e-01,
          -3.60300355e-02, -1.24436092e+00, -1.30881286e+00,
          -5.32361686e-01, -1.51889038e+00, -3.28684187e+00,
          -2.35084200e+00, -9.15713251e-01, 6.75313622e-02,
          -1.47144228e-01, 9.47838426e-01, 3.17656957e-02,
          5.53305596e-02, -4.27826136e-01, -9.77176368e-01,
          -8.42300951e-02, -1.26552403e+00, -2.27043971e-01,
          1.05446959e+00, 8.90549839e-01, 3.53884071e-01,
          -5.12871623e-01, -1.15886652e+00, 1.33959973e+00,
          5.72232127e-01, 6.88036323e-01, -3.33498448e-01,
          -1.38165581e+00, -1.04710531e+00, -1.03829062e+00,
          2.52895415e-01, -2.07072467e-01, -1.09415495e+00,
          -2.15390754e+00, -2.56336212e+00, -2.52584171e+00,
          -1.72823477e+00, -3.12847376e-01, -4.83324043e-02,
          -2.47916635e-02, -7.80377805e-01, -5.36942892e-02,
          -1.00624099e-01, -8.03931728e-02, 2.05628112e-01,
          -2.11466718e+00, -1.81018376e+00, 8.43915045e-01,
          8.00556839e-01, -4.47233260e-01, -9.76274133e-01,
          -1.10773993e+00, 6.16337419e-01, 4.78552639e-01,
          9.09506381e-02 ]
      - [ -4.36360240e-01, 1.54666737e-01, -3.44196105e+00,
          -1.56272650e+00, 5.09946227e-01, 2.24434376e+00,
          9.49655473e-01, 3.88549775e-01, -3.18357259e-01,
          -5.46686769e-01, -3.02799964e+00, -1.80187297e+00,
          -1.03603315e+00, -1.66845649e-01, -1.11852038e+00,
          -8.17390859e-01, 1.91392854e-01, 5.57929575e-01,
          -8.10423613e-01, 9.65766370e-01, -6.89940333e-01,
          -6.88379183e-02, 2.35881180e-01, 7.70779014e-01,
          -6.68033201e-04, 6.22702658e-01, 6.61261499e-01,
          2.42042735e-01, 1.49660662e-01, -1.03973687e-01,
          -7.06480145e-01, -7.65101537e-02, 1.14211082e+00,
          1.22518945e+00, 1.52064955e+00, -2.62032688e-01,
          -2.29264808e+00, -1.47786427e+00, -1.76187646e+00,
          -2.00862885e-01, 7.47232139e-01, 4.52360451e-01,
          -1.37008142e+00, -4.37750196e+00, -3.70263624e+00,
          -2.69217324e+00, -2.14186144e+00, -1.12958300e+00,
          -1.10870492e+00, -2.90623635e-01, 5.07678926e-01,
          1.95279348e+00, 1.58565533e+00, 6.58248365e-01, 2.40594357e-01,
          -6.87406957e-01, -1.92343128e+00, 4.01385784e-01,
          1.22001910e+00, 1.89234293e+00, 7.38029063e-01, 7.78876483e-01,
          8.77501249e-01, -1.46483377e-01 ]
      - [ -4.33017731e-01, -1.47260416e+00, 2.23766029e-01,
          1.76201439e+00, 5.23690939e-01, 1.27560937e+00, 9.90051687e-01,
          4.60657686e-01, -9.41550732e-01, -1.32884145e+00,
          -2.62543093e-02, 8.11871588e-01, 4.85269994e-01,
          5.05883157e-01, 7.99721003e-01, 2.40215325e+00,
          -2.11409020e+00, 1.21369874e+00, 1.14344013e+00,
          7.66606271e-01, 1.52731204e+00, -4.76488233e-01,
          -7.35424221e-01, -7.08255231e-01, -2.00806379e+00,
          -5.87644458e-01, 3.24037790e-01, 1.37672377e+00,
          1.30422819e+00, 8.80771637e-01, -7.06713617e-01,
          -1.81031978e+00, -5.10249019e-01, -8.05501342e-01,
          -2.56111383e+00, -2.50377893e-01, 2.90993124e-01,
          6.26045346e-01, -7.29348540e-01, 1.65612102e-01,
          -1.21539545e+00, -9.01112914e-01, 1.79475474e+00,
          2.18333840e+00, 3.92049432e-01, -5.52088022e-01,
          1.84262037e-01, -6.51754141e-01, 1.57823694e+00,
          8.70655000e-01, -2.54850388e-01, -9.76678908e-01,
          2.93305546e-01, 5.56954920e-01, 1.10257661e+00, 2.87312388e-01,
          2.28536129e-01, -4.81131971e-01, -1.13099921e+00,
          -1.65042830e+00, -4.35869515e-01, 7.43623003e-02,
          9.59178090e-01, 3.22784185e-01 ]
      - [ 1.60181510e+00, 6.83352411e-01, -3.39233875e-01,
          -8.03669333e-01, -9.55353022e-01, 5.95651507e-01,
          3.86405945e-01, 7.97492146e-01, 3.39599311e-01, 4.93761636e-02,
          3.56810838e-01, -9.22465205e-01, -1.25068581e+00,
          -4.66196239e-01, 9.64093804e-01, 1.17310441e+00,
          -1.65384448e+00, -1.14304411e+00, 8.90247643e-01,
          4.92508352e-01, 1.33166492e+00, 1.07388055e+00, 9.00483429e-01,
          -3.75630081e-01, -4.15107906e-01, -7.76356578e-01,
          -5.87249637e-01, 5.67236006e-01, 6.63332283e-01,
          1.05185950e+00, -1.18804656e-01, -7.97239780e-01,
          -1.27378333e+00, -1.42198229e+00, -2.23004907e-01,
          -3.30607861e-01, 5.18891513e-01, 7.78807580e-01,
          6.89520299e-01, -7.19266772e-01, -4.97590154e-01,
          -6.27847493e-01, 1.48353839e+00, 1.86675525e+00,
          4.42771584e-01, -9.12850618e-01, -1.28695440e+00,
          -1.60744393e+00, 9.41318393e-01, 8.43514144e-01,
          2.80466080e-01, 6.85275614e-01, 5.91281414e-01, 3.43541920e-01,
          5.02223313e-01, 1.01651156e+00, -2.70072162e-01,
          -1.11149991e+00, 7.20796764e-01, 6.43056273e-01,
          1.15996718e+00, 5.73599339e-01, 5.71285605e-01, 4.82845336e-01 ]
      - [ 8.87560844e-01, 5.78329504e-01, -1.46845961e+00,
          -1.27763188e+00, -9.21755254e-01, -1.25104308e+00,
          -3.81902397e-01, 4.69612390e-01, 2.30626166e-01,
          1.19403891e-01, -1.04437160e+00, -6.69190466e-01,
          -3.86501729e-01, -9.86766219e-01, -1.97362113e+00,
          -2.95014292e-01, -3.53019810e+00, -4.81227815e-01,
          1.68599558e+00, 2.41346836e+00, 2.03678226e+00, 9.28705692e-01,
          -2.07506001e-01, -8.77091408e-01, -2.04196787e+00,
          -3.31044865e+00, -9.33870733e-01, 6.85422421e-01,
          7.63634264e-01, 1.74430776e+00, -4.67421591e-01,
          -2.14728260e+00, -2.16514063e+00, -2.32836795e+00,
          -2.16541004e+00, -3.56716931e-01, -2.06797034e-01,
          -5.99182606e-01, -5.53832531e-01, -1.58348632e+00,
          -2.07957578e+00, -1.34010112e+00, 1.90364674e-01,
          2.91295052e+00, -2.14249134e-01, -9.58373010e-01,
          -6.94022179e-01, -1.16743553e+00, 1.65939760e+00,
          2.35856891e+00, 6.85856640e-01, 9.36555862e-02, 4.41134661e-01,
          1.11772501e+00, -3.24528724e-01, -1.74950421e-01,
          -1.72174603e-01, 3.84153798e-02, -1.26974666e+00,
          -1.10827291e+00, -4.82642412e-01, -5.25677986e-02,
          6.81231141e-01, 1.75737464e+00 ]
      - [ 8.20318699e-01, 3.25158685e-02, -1.39302552e+00,
          -2.28046089e-01, -1.53546199e-01, 4.37342465e-01,
          -3.30945760e-01, 2.45539680e-01, -4.27527159e-01,
          -1.17469728e+00, -1.08644772e+00, -2.98424542e-01,
          -5.35485566e-01, 3.59964192e-01, -2.62002051e-02,
          8.44094276e-01, -1.99935150e+00, -5.22635102e-01,
          1.57906103e+00, 1.40671074e-01, 4.73693311e-01, 2.83294410e-01,
          4.92744714e-01, -5.72601616e-01, 2.02163070e-01,
          1.35919660e-01, 9.14380610e-01, 6.87249482e-01, 3.92747611e-01,
          3.08805078e-01, -4.17259514e-01, -3.76556627e-02,
          -1.32666516e+00, -1.69236958e+00, -2.06744838e+00,
          1.91450149e-01, 1.16629437e-01, 8.14526498e-01, 1.82374522e-01,
          -1.75034118e+00, -2.17277360e+00, 8.87838602e-01,
          2.02397871e+00, 1.74353194e+00, 8.06175321e-02,
          -1.26017714e+00, -3.20597798e-01, -1.97146797e+00,
          -1.02100290e-01, 1.10202587e+00, 7.52656488e-03,
          -5.41358888e-02, 1.14609015e+00, 1.07786548e+00,
          1.65699553e+00, 1.17057240e+00, -2.23146439e+00,
          -6.76767051e-01, 2.38151979e+00, 1.14485943e+00,
          7.08308280e-01, -5.40620089e-01, 3.00159335e-01,
          2.70527780e-01 ]
      - [ 2.09380221e+00, 1.04432714e+00, -8.54899228e-01,
          -1.60281777e+00, -1.28538096e+00, -7.05454528e-01,
          -1.56073496e-01, 2.35430509e-01, 1.17419946e+00,
          2.98846275e-01, -2.48761922e-01, -1.19658697e+00,
          -1.52861738e+00, -8.69511425e-01, -8.00149202e-01,
          -3.49968404e-01, -5.84753215e-01, -9.30158973e-01,
          8.49516224e-03, -2.70996898e-01, 7.31568038e-01,
          1.16449571e+00, 1.14515150e+00, 4.67192382e-01, 3.10403973e-01,
          -3.20863485e-01, -9.38285828e-01, -3.56117859e-02,
          4.70708221e-01, 4.64979440e-01, 8.88675272e-01,
          -2.41169319e-01, -4.56733584e-01, -9.98208076e-02,
          1.08292806e+00, 1.22738287e-01, 2.89331138e-01, 1.67417869e-01,
          5.26502192e-01, -5.49876332e-01, 3.23879033e-01,
          5.25694489e-01, 1.49131687e-02, 1.41104102e-01,
          -6.15982473e-01, -6.33377135e-01, -5.60557246e-01,
          -1.33445060e+00, -8.20636511e-01, 7.19515681e-02,
          6.42589256e-02, 1.11323214e+00, 4.18594889e-02, 4.48593616e-01,
          2.34339051e-02, -4.86543715e-01, -5.90754092e-01,
          -5.69903970e-01, 7.33546436e-01, 1.61022782e+00,
          6.09893918e-01, 5.11070192e-01, 3.68887596e-02,
          -6.40049651e-02 ]
      - [ 2.61267900e+00, 2.19572163e+00, -1.98403120e+00,
          -2.92385578e+00, -1.17708206e+00, -1.12284946e+00,
          -9.28252637e-01, -4.53197910e-03, 8.51257265e-01,
          1.07533373e-01, -8.20695937e-01, -1.14181149e+00,
          -3.20450813e-01, -9.03167069e-01, -3.31415486e+00,
          -3.68795490e+00, -1.04022574e+00, -8.24059606e-01,
          1.99698359e-01, 2.22385563e-02, 6.91401720e-01, 5.61314106e-01,
          5.42702079e-01, -1.05957232e-01, 7.18066812e-01,
          -1.34226590e-01, -6.28991961e-01, 4.69896525e-01,
          -2.93063730e-01, -2.34957077e-02, -4.75508660e-01,
          -1.88482150e-01, -1.31707013e+00, -9.62651610e-01,
          7.31864333e-01, 2.38166094e-01, 5.79866588e-01,
          -5.59663534e-01, -4.77651715e-01, -5.79453647e-01,
          -1.79711029e-01, 4.89079684e-01, -4.67692763e-01,
          -7.62541771e-01, -2.16694146e-01, -1.49810171e+00,
          -1.90241635e-01, -1.45324755e+00, -9.71909642e-01,
          7.62522936e-01, -4.98190105e-01, 1.10464180e+00,
          8.60605121e-01, 9.36170444e-02, -1.43283677e+00,
          -1.18178165e+00, -9.01246667e-02, -6.73854947e-02,
          4.46188092e-01, 7.78903246e-01, 4.53438997e-01,
          -3.34914148e-01, -8.74325395e-01, 4.54145432e-01 ]
      - [ 1.60295308e+00, 6.04082346e-01, -1.75776184e+00,
          -1.25729287e+00, -1.60918906e-01, -2.20570594e-01,
          -4.26551014e-01, -2.09444493e-01, 3.71290296e-01,
          -2.64269739e-01, -1.33634174e+00, -5.34236014e-01,
          -6.66527569e-01, -2.94875473e-01, -5.02097130e-01,
          -9.89264190e-01, -5.16146362e-01, -3.97474766e-01,
          7.47560486e-02, -5.76532423e-01, 3.34005743e-01,
          4.77117337e-02, 5.77604890e-01, 4.29212034e-01, 1.99346340e+00,
          8.14706683e-01, 2.52355356e-02, -9.31890786e-01,
          -3.20373088e-01, -2.09781885e-01, 7.84642816e-01,
          4.58205879e-01, -9.70207274e-01, -9.53740418e-01,
          5.81355155e-01, 1.13759674e-01, 1.54214337e-01,
          -1.47138089e-01, -9.55063775e-02, -7.75557280e-01,
          -6.77470505e-01, 1.10010028e+00, 2.71379296e-02,
          -8.37544143e-01, -1.07589841e+00, -8.18700969e-01,
          -4.18766618e-01, -7.01767266e-01, -1.31967044e+00,
          3.43419224e-01, -1.97983339e-01, 1.97378004e+00,
          1.70050278e-01, 9.03701782e-01, 7.56155193e-01, 9.32085142e-02,
          -2.39570284e+00, -8.82596314e-01, 2.13501716e+00,
          2.33720589e+00, 1.51650086e-01, -7.93833137e-01,
          -4.24477667e-01, -8.07719409e-01 ]
      - [ -8.75590026e-01, 3.07069898e-01, -6.89086854e-01,
          -3.44749331e-01, 2.05799028e-01, -1.33695102e+00,
          -1.72215974e+00, -7.12860405e-01, -1.24240899e+00,
          -1.00540483e+00, -1.01589668e+00, 8.34937334e-01,
          2.43027210e+00, -3.77095550e-01, -2.92585731e+00,
          -2.28963614e+00, 8.28042567e-01, -1.73650354e-01,
          4.72082257e-01, 1.07585478e+00, -1.00857258e+00,
          -2.07271934e+00, -1.57267165e+00, -1.24984920e+00,
          -4.37054671e-02, -3.10869992e-01, 4.06963646e-01,
          2.88140327e-01, -1.43498313e+00, -2.04621458e+00,
          -8.88922632e-01, -4.68404412e-01, -1.18907206e-01,
          -6.04371190e-01, -9.96439815e-01, 1.01776731e+00,
          -1.13629377e+00, -5.63500226e-01, -1.23999321e+00,
          -1.43737689e-01, -5.75000703e-01, -9.29051042e-01,
          -1.36163247e+00, -5.88407934e-01, 4.86656964e-01,
          6.81212842e-01, 4.69790071e-01, 1.18766868e+00,
          -2.26318479e-01, -4.46295708e-01, -2.97374185e-02,
          -9.89303291e-01, -4.93013263e-01, 1.33285868e+00,
          -9.52281535e-01, -2.50240660e+00, 1.00015330e+00,
          1.24514496e+00, -1.79076087e+00, -1.95060885e+00,
          -1.77546954e+00, -8.39758694e-01, -9.43865359e-01,
          3.09251189e-01 ]
      - [ -1.43231142e+00, -1.76904225e+00, -6.51750445e-01,
          -6.46240830e-01, 4.95721519e-01, -1.25617707e+00,
          -1.61341035e+00, -1.37620521e+00, -2.00968432e+00,
          -7.30121076e-01, -8.53344679e-01, 1.58452964e+00,
          2.97727108e+00, 7.60066390e-01, -1.14192271e+00,
          -1.26678979e+00, 7.25322306e-01, 8.35108459e-01,
          7.82102704e-01, 1.50546720e-02, -8.19347560e-01,
          -1.79371345e+00, -1.20890427e+00, -4.61540639e-01,
          7.89561048e-02, 1.56948721e+00, 2.21678233e+00,
          -1.37715471e+00, -2.37361407e+00, -2.99837494e+00,
          -8.49763453e-01, 3.71780664e-01, 9.32605028e-01,
          2.60148048e-01, -1.74660134e+00, -5.84661663e-02,
          -1.05750918e+00, -1.54194057e+00, -1.05172324e+00,
          -7.79638410e-01, 5.75597584e-01, 6.44716024e-01,
          8.26797783e-01, -8.79168749e-01, -3.62090558e-01,
          1.17206919e+00, 6.15089178e-01, 1.64664078e+00,
          -1.49546817e-01, 1.54413521e+00, -6.72545433e-02,
          1.18352637e-01, 2.18378961e-01, -1.35816544e-01,
          1.02314496e+00, 4.54694301e-01, -2.04511905e+00,
          -5.96267581e-01, 6.56919479e-01, -2.33390316e-01,
          -1.26982093e+00, -2.22806716e+00, -3.65922976e+00,
          -1.55629992e+00 ]
      - [ -7.13937461e-01, -1.36310244e+00, -9.55749929e-01,
          5.09167612e-01, 2.01059386e-01, 9.02743876e-01, 5.11117935e-01,
          -3.82317930e-01, 2.79110968e-02, -4.06783491e-01,
          -9.18707371e-01, -1.86461210e-01, -2.45495230e-01,
          1.76186347e+00, 1.68433845e+00, 1.05091751e+00, 3.20499033e-01,
          1.08657491e+00, -6.46905601e-02, -9.08378959e-01,
          -1.52887881e-01, -4.09461595e-02, 3.77614915e-01,
          9.21044230e-01, 1.28214741e+00, 2.17409110e+00, 1.59095335e+00,
          -8.97782028e-01, -1.66675436e+00, -6.52375996e-01,
          1.02119255e+00, 2.07931495e+00, 1.80307060e-01, 2.03347072e-01,
          3.87717426e-01, -3.37516457e-01, 1.33937478e-01,
          4.16145235e-01, 6.67939186e-01, -6.95177317e-01,
          -5.35037480e-02, 9.29991722e-01, 1.06560099e+00,
          -9.21889991e-02, -9.22244608e-01, -4.53612894e-01,
          1.07413709e-01, -8.51618648e-02, -1.86242628e+00,
          7.37422109e-02, -1.50198609e-01, 1.04412162e+00,
          1.11722732e+00, 2.70588726e-01, 1.90803397e+00, 2.14224935e+00,
          -2.92343378e+00, -1.55561554e+00, 2.92539215e+00,
          2.49476194e+00, 1.58452940e+00, 8.48956347e-01,
          -8.97499382e-01, -2.09923625e+00 ]
   uncompressed_sv_total: 845
   uncompressed_support_vectors:
      - [ 1.59334004e-01, 2.65260577e-01, 2.45603576e-01, 0., 0., 0., 0.,
          0., 0., 1.49894580e-01, 8.14113468e-02, 1.15923792e-01,
          7.46416971e-02, 1.19278982e-01, 0., 3.01834065e-02,
          1.74274549e-01, 4.39155661e-02, 0., 5.10897785e-02,
          1.51774183e-01, 9.90395024e-02, 9.53183398e-02, 1.92744404e-01,
          1.19694658e-01, 4.05264981e-02, 0., 0., 1.35649502e-01,
          2.65334219e-01, 1.62389740e-01, 1.29376680e-01, 0.,
          5.13353199e-02, 0., 1.28200531e-01, 1.28319502e-01,
          1.64061025e-01, 1.64421022e-01, 2.43885428e-01, 1.08422667e-01,
          7.80670196e-02, 1.39351606e-01, 9.45018828e-02, 1.19904034e-01,
          8.26408640e-02, 1.39015615e-01, 0., 1.14319168e-01,
          1.41694576e-01, 1.31639719e-01, 2.02874526e-01, 5.26042245e-02,
          0., 8.63690823e-02, 1.54926658e-01, 1.09094843e-01,
          1.85126245e-01, 2.33270079e-01, 1.53889030e-01, 1.41496420e-01,
          2.83346828e-02, 0., 1.10260159e-01 ]
      - [ 1.91216812e-01, 2.27184102e-01, 1.33780956e-01, 1.17252141e-01,
          0., 0., 0., 0., 1.29285246e-01, 8.10068026e-02, 4.72001620e-02,
          0., 0., 2.51430478e-02, 0., 1.97560862e-01, 2.00941995e-01,
          1.16307372e-02, 0., 4.07860018e-02, 0., 0., 8.05296451e-02,
          1.75972551e-01, 1.27026007e-01, 3.23535092e-02, 0., 0., 0.,
          1.84765622e-01, 2.13032350e-01, 2.37289190e-01, 1.17296681e-01,
          3.61888707e-02, 5.88098951e-02, 0., 2.08257452e-01,
          1.80152580e-01, 1.62200883e-01, 2.66528308e-01, 1.36354461e-01,
          1.04485057e-01, 9.18994695e-02, 0., 1.22880496e-01,
          6.56760707e-02, 9.35367048e-02, 1.08211257e-01, 1.78842232e-01,
          1.23233192e-01, 8.91472250e-02, 8.13092962e-02, 8.70583802e-02,
          6.76116273e-02, 0., 1.06549077e-01, 2.83561319e-01,
          2.66580254e-01, 1.35774672e-01, 1.28122419e-01, 1.46297753e-01,
          4.58868667e-02, 0., 1.33355409e-01 ]
      - [ 2.54659474e-01, 1.43572628e-01, 2.18029290e-01, 1.28607973e-01,
          5.30539602e-02, 8.18432495e-03, 0., 0., 1.12244850e-02,
          5.96674494e-02, 8.31182599e-02, 5.04244342e-02, 1.09082825e-01,
          0., 0., 0., 2.12584585e-01, 8.20740983e-02, 4.27609198e-02, 0.,
          1.61094248e-01, 1.09247468e-01, 1.29620612e-01, 1.40178844e-01,
          8.56616125e-02, 9.73643288e-02, 1.41879842e-01, 1.09660208e-01,
          1.79611042e-01, 2.07037523e-01, 1.65867388e-01, 1.56812325e-01,
          5.27382642e-03, 0., 0., 0., 1.01023927e-01, 2.65311301e-01,
          2.48005986e-01, 1.01729907e-01, 0., 1.77458934e-02,
          1.27055004e-01, 1.50241420e-01, 0., 6.89684749e-02,
          8.84871185e-02, 6.10625520e-02, 7.95039013e-02, 2.10790157e-01,
          1.32778868e-01, 1.30081668e-01, 3.31579596e-02, 0.,
          7.99945965e-02, 1.75016031e-01, 1.24212682e-01, 2.73628742e-01,
          1.71615705e-01, 1.96052939e-01, 8.17619860e-02, 0., 0.,
          1.48698106e-01 ]
      - [ 1.38645336e-01, 2.49876827e-01, 1.34261027e-01, 1.48984537e-01,
          0., 0., 0., 0., 0., 1.95289746e-01, 4.59415913e-02, 0., 0., 0.,
          0., 1.90098986e-01, 1.89970240e-01, 3.46826017e-02, 0., 0.,
          1.52172372e-01, 9.51969549e-02, 8.14712718e-02, 1.16287164e-01,
          1.99227631e-01, 9.19428840e-02, 0., 2.52730455e-02,
          1.79844126e-01, 1.66976228e-01, 1.62388444e-01, 2.11305916e-01,
          4.96734381e-02, 0., 3.20319608e-02, 1.18176758e-01,
          1.88214809e-01, 1.19859017e-01, 1.36345312e-01, 2.53728360e-01,
          8.65580961e-02, 1.68368414e-01, 1.05479650e-01, 5.91072030e-02,
          5.91823235e-02, 0., 6.99541271e-02, 1.80616871e-01,
          1.23196967e-01, 1.31799415e-01, 1.35745391e-01, 1.49643943e-01,
          0., 0., 0., 1.74258500e-01, 1.88237593e-01, 2.39105120e-01,
          1.60231039e-01, 1.30493939e-01, 1.40048385e-01, 0.,
          6.35527596e-02, 1.66249722e-01 ]
      - [ 2.06223071e-01, 2.40910009e-01, 1.97729036e-01, 0.,
          3.28170992e-02, 0., 5.94129972e-02, 0., 1.23779051e-01,
          1.17348798e-01, 9.80278328e-02, 1.27771407e-01, 0.,
          5.58897331e-02, 0., 1.40897846e-02, 1.24556087e-01, 0., 0.,
          5.01913577e-02, 1.40589550e-01, 9.66017395e-02, 8.87479410e-02,
          1.87737957e-01, 1.14464335e-01, 0., 4.92715649e-02,
          6.01018779e-02, 1.34000480e-01, 1.83826089e-01, 1.81702733e-01,
          2.07793728e-01, 9.15613621e-02, 0., 0., 1.33081853e-01,
          1.31583095e-01, 1.42722681e-01, 2.49860778e-01, 1.71733379e-01,
          1.61819711e-01, 1.12124369e-01, 8.08980912e-02, 1.26157150e-01,
          5.96564859e-02, 9.00397226e-02, 1.09764919e-01, 1.73946977e-01,
          1.91837206e-01, 1.30737558e-01, 1.28549293e-01, 1.65871412e-01,
          1.01065144e-01, 0., 0., 0., 2.45289698e-01, 1.96082100e-01,
          1.50215939e-01, 2.26444721e-01, 0., 0., 1.41834104e-02,
          9.13759246e-02 ]
      - [ 2.70726889e-01, 1.68740094e-01, 1.23780586e-01, 1.27793074e-01,
          0., 0., 0., 0., 2.81984717e-01, 1.10450573e-01, 0.,
          3.54367010e-02, 0., 0., 0., 1.42042369e-01, 1.50339305e-01,
          4.27330397e-02, 0., 0., 0., 1.08570226e-01, 1.42951354e-01,
          2.37511009e-01, 0., 0., 0., 0., 1.36963964e-01, 1.26938999e-01,
          2.24179626e-01, 2.33088210e-01, 1.41028762e-01, 0.,
          6.18748516e-02, 1.28818035e-01, 5.74734583e-02, 1.13991357e-01,
          1.59567609e-01, 2.29711473e-01, 1.32624432e-01, 1.00139752e-01,
          8.44858140e-02, 7.11661056e-02, 0., 5.62969223e-02,
          5.61102293e-02, 2.05082819e-01, 1.62604645e-01, 2.06959039e-01,
          9.95489359e-02, 1.51602075e-01, 2.77206581e-02, 0.,
          1.58020500e-02, 1.27205893e-01, 2.27318451e-01, 2.24893674e-01,
          1.75166950e-01, 1.57652006e-01, 0., 0., 2.69281622e-02, 0. ]
      - [ 2.12881342e-01, 2.17237443e-01, 1.87030330e-01, 1.23169817e-01,
          0., 0., 0., 6.41636252e-02, 1.87133223e-01, 1.74642429e-01,
          1.16664588e-01, 0., 0., 0., 5.30863255e-02, 4.49984446e-02,
          1.61786675e-01, 2.83227768e-02, 0., 0., 8.08066949e-02,
          1.52920410e-01, 1.23895638e-01, 1.30699247e-01, 1.76667064e-01,
          3.00886575e-02, 0., 0., 1.60430655e-01, 1.64180607e-01,
          2.15004519e-01, 1.47296295e-01, 8.23119655e-02, 7.60823563e-02,
          1.04125850e-01, 1.67825699e-01, 1.61326513e-01, 1.16195664e-01,
          1.96480215e-01, 1.76081002e-01, 6.82029054e-02, 1.28311053e-01,
          0., 1.32555932e-01, 9.04717371e-02, 1.26211673e-01,
          1.70408249e-01, 6.71468228e-02, 8.29872042e-02, 0.,
          1.17752232e-01, 1.43987104e-01, 1.25840202e-01, 1.23358676e-02,
          1.31608799e-01, 1.57669410e-01, 1.61444902e-01, 1.49556622e-01,
          1.44916803e-01, 1.78884760e-01, 1.26413614e-01, 2.75970902e-02,
          1.27046540e-01, 1.90175474e-01 ]
      - [ 2.06025973e-01, 1.50179103e-01, 1.10551156e-01, 1.69186816e-01,
          1.74412429e-01, 4.74189185e-02, 0., 0., 1.41932622e-01,
          1.35149911e-01, 1.51512012e-01, 1.11728832e-01, 1.52272508e-01,
          0., 6.44101948e-02, 4.58747931e-02, 1.43405914e-01,
          8.09555966e-03, 3.53592187e-02, 2.24523768e-02, 1.69792354e-01,
          1.12461597e-01, 1.64639890e-01, 1.75892711e-01, 0.,
          3.96808842e-03, 0., 2.00359393e-02, 1.94241807e-01,
          1.68577731e-01, 1.54520378e-01, 1.71724796e-01, 5.34538850e-02,
          0., 4.66517694e-02, 1.77091524e-01, 1.63250208e-01,
          9.79475677e-02, 1.66339561e-01, 1.96273029e-01, 6.87848032e-02,
          9.85112488e-02, 9.02796537e-02, 1.03035405e-01, 1.09997287e-01,
          1.49763241e-01, 1.32961333e-01, 1.46537110e-01, 1.90314367e-01,
          1.39895439e-01, 1.61804676e-01, 1.39376059e-01, 1.18376218e-01,
          0., 0., 8.92058983e-02, 1.90169990e-01, 2.00301528e-01,
          1.50483236e-01, 2.19673067e-01, 9.43775848e-03, 0., 0., 0. ]
      - [ 1.33636549e-01, 2.28226110e-01, 1.61049262e-01, 1.65903792e-01,
          1.64324448e-01, 0., 0., 0., 0., 2.19491944e-01, 7.59194568e-02,
          1.37428910e-01, 5.75198792e-02, 1.03950739e-01, 8.59484449e-02,
          0., 0., 4.54787947e-02, 5.59377447e-02, 1.45747289e-01,
          9.20712799e-02, 1.05727404e-01, 1.43536210e-01, 1.00458376e-01,
          1.38804033e-01, 0., 0., 0., 2.18221113e-01, 1.73578382e-01,
          1.70716509e-01, 1.80046991e-01, 0., 0., 3.66616286e-02,
          1.06875829e-01, 2.20584363e-01, 2.28729278e-01, 1.50484994e-01,
          1.32189035e-01, 0., 7.28548467e-02, 1.15894265e-01,
          9.56992507e-02, 1.02373354e-01, 2.04689711e-01, 1.55607358e-01,
          0., 1.36878788e-01, 1.10316359e-01, 1.47585824e-01,
          2.10123599e-01, 8.26171413e-02, 0., 0., 0., 1.55959845e-01,
          1.51059046e-01, 2.35948309e-01, 2.29853764e-01, 2.45803352e-02,
          0., 4.03619967e-02, 0. ]
      - [ 2.02429444e-01, 1.72201246e-01, 1.27331734e-01, 1.00476854e-01,
          1.08452685e-01, 1.53134957e-01, 0., 1.49854302e-01,
          1.59104228e-01, 4.61453944e-02, 5.11820726e-02, 1.33982198e-02,
          0., 1.48952961e-01, 8.49054828e-02, 1.32533029e-01, 0., 0., 0.,
          0., 1.49890274e-01, 1.26895621e-01, 1.21294543e-01,
          1.95969269e-01, 0., 0., 0., 0., 1.83004260e-01, 1.75623998e-01,
          1.93406865e-01, 2.33454823e-01, 1.30351871e-01, 8.27932507e-02,
          0., 0., 2.02107668e-01, 2.10559174e-01, 1.62669986e-01,
          1.60501689e-01, 1.42127037e-01, 0., 0., 0., 1.91338614e-01,
          1.60202786e-01, 6.09396473e-02, 9.25714150e-02, 1.88620090e-01,
          1.53789610e-01, 1.01179115e-01, 1.67622954e-01, 0., 0., 0., 0.,
          2.51378775e-01, 2.00308278e-01, 1.28663644e-01, 2.00173378e-01,
          8.21477175e-02, 0., 0., 0. ]
      - [ 2.03486383e-01, 1.32681265e-01, 1.98431268e-01, 1.93826407e-01,
          2.54184380e-02, 0., 1.89521834e-02, 0., 8.34907070e-02,
          1.05128765e-01, 1.50316879e-01, 4.16807197e-02, 8.49078819e-02,
          0., 9.02169198e-02, 0., 1.48754805e-01, 6.64141169e-03, 0., 0.,
          4.47177440e-02, 1.97348624e-01, 1.02536201e-01, 1.60703242e-01,
          6.39306158e-02, 0., 0., 7.90916756e-02, 2.00343758e-01,
          1.90370739e-01, 1.90840349e-01, 1.42432839e-01, 8.74619707e-02,
          1.11770354e-01, 1.55879065e-01, 1.72687799e-01, 1.54405013e-01,
          1.35930285e-01, 1.52436852e-01, 1.43442526e-01, 1.69904515e-01,
          1.17691435e-01, 1.25998989e-01, 1.34404898e-01, 1.75007015e-01,
          3.87346447e-02, 0., 0., 2.03446180e-01, 1.10871881e-01,
          1.13271989e-01, 1.26054242e-01, 1.67890057e-01, 5.31442612e-02,
          1.52173862e-02, 1.22239873e-01, 1.70872137e-01, 2.24389449e-01,
          1.49865955e-01, 1.97874829e-01, 1.45263866e-01, 0., 0.,
          4.91788052e-02 ]
      - [ 1.95760354e-01, 1.63966715e-01, 2.10308447e-01, 1.06057100e-01,
          1.39187649e-01, 5.25704101e-02, 6.50812611e-02, 0.,
          1.22983955e-01, 1.45268872e-01, 7.36521855e-02, 6.58435598e-02,
          8.89693201e-02, 6.68656304e-02, 4.91669402e-02, 0.,
          1.21440016e-01, 0., 0., 0., 1.72966972e-01, 1.55139595e-01,
          8.76749307e-02, 1.80976108e-01, 0., 0., 5.98203503e-02,
          1.34439096e-01, 1.50775224e-01, 2.44136363e-01, 1.89688072e-01,
          1.50127560e-01, 4.39057536e-02, 0., 1.04747824e-01,
          1.38570592e-01, 1.18842885e-01, 1.94765151e-01, 2.21890703e-01,
          1.48644254e-01, 0., 7.06130490e-02, 1.13275699e-01,
          8.63647312e-02, 1.15785390e-01, 1.35786653e-01, 1.03952102e-01,
          1.38293341e-01, 1.73846856e-01, 1.19486600e-01, 1.44106269e-01,
          1.88657150e-01, 8.11419915e-03, 0., 0., 1.27680644e-01,
          2.17140287e-01, 1.45237148e-01, 1.90931946e-01, 1.98075771e-01,
          1.24837585e-01, 0., 3.44272926e-02, 0. ]
      - [ 2.62658805e-01, 1.40093550e-01, 1.65658757e-01, 1.62677586e-01,
          1.27029181e-01, 9.09327194e-02, 0., 0., 1.33180827e-01,
          2.17184067e-01, 1.59798563e-01, 9.12570655e-02, 0., 0., 0., 0.,
          1.08809851e-01, 0., 0., 1.18675649e-01, 1.59025073e-01,
          1.03504285e-01, 1.01612382e-01, 1.30810529e-01, 1.34531558e-01,
          0., 2.22578067e-02, 1.20951526e-01, 1.71402410e-01,
          1.93213612e-01, 1.85091838e-01, 1.62118822e-01, 9.88816172e-02,
          1.22237138e-01, 1.00145228e-01, 8.98984373e-02, 1.25145301e-01,
          1.66982755e-01, 2.00494915e-01, 1.81439683e-01, 4.41060588e-02,
          7.63624310e-02, 3.52963582e-02, 7.46332332e-02, 5.63237593e-02,
          1.60332128e-01, 6.29117787e-02, 1.64648578e-01, 0.,
          1.83236390e-01, 1.87452123e-01, 1.55622780e-01, 0., 0., 0., 0.,
          1.34173051e-01, 2.00771898e-01, 2.47855172e-01, 1.90695137e-01,
          3.73163223e-02, 0., 0., 0. ]
      - [ 1.62545115e-01, 2.60655820e-01, 2.30333656e-01, 0., 0., 0., 0.,
          0., 1.49825305e-01, 1.17542751e-01, 1.50266618e-01, 0., 0.,
          4.92952242e-02, 0., 0., 1.52294978e-01, 2.18152571e-02,
          3.62582877e-02, 1.59671232e-01, 9.91572216e-02, 7.74754733e-02,
          4.99844030e-02, 8.68330449e-02, 1.82948530e-01, 1.11196898e-01,
          6.25972599e-02, 5.89677207e-02, 1.69645190e-01, 1.73838541e-01,
          1.99332193e-01, 1.62732467e-01, 0., 7.74092749e-02,
          1.33307472e-01, 1.42764479e-01, 9.60650668e-02, 1.26666993e-01,
          1.62898615e-01, 2.18319237e-01, 1.10841215e-01, 1.18590415e-01,
          1.39622808e-01, 1.34886622e-01, 9.52907130e-02, 6.94810748e-02,
          7.64747113e-02, 1.46009922e-01, 1.56565085e-01, 1.31575808e-01,
          1.81761399e-01, 1.85157984e-01, 0., 0., 8.18651840e-02,
          1.40108436e-01, 1.35477290e-01, 1.98427096e-01, 2.21545160e-01,
          2.13294268e-01, 0., 0., 0., 0. ]
      - [ 2.08525151e-01, 1.29963666e-01, 2.88004935e-01, 1.46316558e-01,
          0., 0., 0., 3.75376865e-02, 1.38288409e-01, 1.47873417e-01,
          1.80194303e-01, 0., 0., 0., 0., 0., 1.74930200e-01,
          1.29989132e-01, 0., 0., 0., 0., 5.43146916e-02, 1.34691313e-01,
          2.19636038e-01, 1.32786006e-01, 1.71208292e-01, 7.26395994e-02,
          9.22026411e-02, 9.57492366e-02, 1.47083774e-01, 1.81455806e-01,
          8.67723953e-03, 0., 0., 1.49494156e-01, 2.08853230e-01,
          1.53030977e-01, 2.20449135e-01, 1.31866395e-01, 5.32810204e-02,
          6.89854920e-02, 5.23698255e-02, 1.76730588e-01, 1.80046812e-01,
          1.06272623e-01, 8.71769041e-02, 1.32883713e-01, 1.11288145e-01,
          2.41268918e-01, 5.81206530e-02, 0., 0., 0., 6.14540949e-02,
          1.65944993e-01, 1.61479518e-01, 1.59057170e-01, 1.82375744e-01,
          1.19191170e-01, 6.94886595e-02, 9.66466963e-02, 1.02103829e-01,
          1.56224638e-01 ]
      - [ 2.39823326e-01, 1.72485948e-01, 2.11610764e-01, 1.52326882e-01,
          0., 4.98575605e-02, 3.53885964e-02, 0., 1.87096402e-01,
          2.15005144e-01, 1.34026438e-01, 9.44182053e-02, 0., 0., 0.,
          5.34036122e-02, 0., 0., 0., 1.12154499e-01, 9.75972936e-02,
          1.56131476e-01, 1.25653967e-01, 1.30906984e-01, 1.54149339e-01,
          0., 0., 1.12370439e-01, 1.18330345e-01, 1.82122037e-01,
          2.31108218e-01, 1.90225169e-01, 1.41494676e-01, 5.70676550e-02,
          8.48164186e-02, 5.03779836e-02, 1.03895359e-01, 1.41931653e-01,
          1.44908056e-01, 2.03294054e-01, 1.41170219e-01, 5.43828718e-02,
          8.22893456e-02, 9.54226255e-02, 0., 0., 9.95138586e-02,
          2.08800584e-01, 1.34553134e-01, 1.91872761e-01, 2.03117535e-01,
          9.39121544e-02, 0., 0., 5.29307760e-02, 0., 1.68019280e-01,
          1.78696454e-01, 2.48670921e-01, 1.70483902e-01, 0., 0.,
          9.27426293e-03, 0. ]
      - [ 2.07512528e-01, 2.14805529e-01, 1.93111703e-01, 0., 0., 0., 0.,
          0., 1.73442841e-01, 1.44283786e-01, 1.38469487e-01, 0., 0., 0.,
          0., 0., 1.79654166e-01, 0., 0., 0., 9.92492288e-02,
          1.42716542e-01, 1.47672519e-01, 1.24314807e-01, 1.74368069e-01,
          4.60743345e-02, 0., 0., 1.72807500e-01, 1.18296601e-01,
          2.06712767e-01, 1.74352407e-01, 8.42569098e-02, 6.22226149e-02,
          9.59245488e-02, 1.72836587e-01, 9.35874432e-02, 1.14936627e-01,
          2.42791772e-01, 2.24915683e-01, 0., 0., 0., 8.00589919e-02,
          9.98445004e-02, 2.14223847e-01, 1.47907048e-01, 0.,
          9.40899476e-02, 7.44816363e-02, 1.57575727e-01, 1.50757819e-01,
          1.14732787e-01, 0., 4.23423462e-02, 1.70330912e-01,
          2.00343430e-01, 1.29113212e-01, 1.56519845e-01, 2.05455557e-01,
          1.14637204e-01, 3.76667231e-02, 6.87506190e-03, 2.10745960e-01 ]
      - [ 1.73121527e-01, 1.25134796e-01, 2.06766516e-01, 1.13871194e-01,
          0., 0., 0., 0., 5.72118126e-02, 0., 5.97075783e-02,
          3.98882963e-02, 8.90662223e-02, 7.15945214e-02, 1.29739270e-01,
          1.63492411e-01, 3.19328755e-01, 4.52478416e-02, 0., 0.,
          9.00651813e-02, 0., 1.10828072e-01, 0., 2.54283458e-01, 0., 0.,
          1.40922233e-01, 1.27972603e-01, 1.11811720e-01, 9.62584317e-02,
          1.17858663e-01, 1.08498327e-01, 0., 0., 1.43782824e-01,
          1.47090271e-01, 1.12867810e-01, 2.35215798e-01, 1.71303406e-01,
          1.61793083e-01, 1.92999437e-01, 7.58071095e-02, 0.,
          9.28212106e-02, 6.67171851e-02, 7.11949095e-02, 1.30531222e-01,
          1.44570574e-01, 1.75676733e-01, 2.09846720e-01, 0.,
          1.96670368e-02, 3.31498608e-02, 5.49825244e-02, 1.52172551e-01,
          2.62193650e-01, 2.17663184e-01, 1.45982087e-01, 1.79465309e-01,
          7.45373666e-02, 0., 2.63762977e-02, 1.32057548e-01 ]
      - [ 2.22638950e-01, 2.06099868e-01, 2.53610402e-01, 1.47753790e-01,
          0., 0., 0., 1.27484072e-02, 2.05909796e-02, 1.07925192e-01,
          1.64830297e-01, 1.13730058e-01, 4.19856794e-03, 0., 0., 0.,
          1.28567994e-01, 0., 0., 1.33302525e-01, 1.03408217e-01,
          1.25503257e-01, 8.89456421e-02, 6.95685670e-02, 1.15553901e-01,
          7.07161054e-02, 3.46160531e-02, 8.73441026e-02, 1.82253629e-01,
          1.50646940e-01, 2.72031844e-01, 1.73224449e-01, 1.13957144e-01,
          5.82719147e-02, 8.35670903e-02, 7.72492960e-02, 1.57603964e-01,
          1.47959173e-01, 1.63319170e-01, 2.76065677e-01, 1.25605434e-01,
          5.55488132e-02, 1.09235212e-01, 1.25124335e-01, 0., 0.,
          1.15691833e-01, 1.38606265e-01, 0., 1.65645659e-01,
          1.45369768e-01, 1.32367596e-01, 0., 0., 3.01876329e-02,
          1.28528342e-01, 2.74846703e-01, 1.06114537e-01, 1.19430825e-01,
          2.52171844e-01, 5.17758764e-02, 0., 0., 0. ]
      - [ 5.39318770e-02, 2.45116740e-01, 2.48613626e-01, 1.33349940e-01,
          0., 0., 0., 1.91969424e-02, 0., 1.34655610e-01, 1.04793340e-01,
          8.67322385e-02, 1.19977474e-01, 1.08507067e-01, 0., 0.,
          1.15947418e-01, 0., 0., 0., 1.53124884e-01, 1.74850136e-01,
          1.17711172e-01, 1.03639401e-01, 1.04624055e-01, 1.17542140e-01,
          7.85743818e-02, 3.15635502e-02, 2.14215770e-01, 1.87621549e-01,
          1.66645467e-01, 1.86539590e-01, 0., 0., 0., 1.70194343e-01,
          1.19550094e-01, 1.75441682e-01, 2.27205679e-01, 8.70735496e-02,
          1.55675426e-01, 8.01303834e-02, 1.25271216e-01, 1.24617681e-01,
          1.11356921e-01, 1.28759414e-01, 1.02212384e-01, 6.09590895e-02,
          1.65145621e-01, 1.55639857e-01, 1.00744717e-01, 1.94060788e-01,
          7.08709210e-02, 0., 7.53266588e-02, 1.49109676e-01,
          1.68128192e-01, 1.50449619e-01, 2.08642304e-01, 2.15971187e-01,
          1.55504802e-02, 2.83427406e-02, 2.35038642e-02, 1.15840934e-01 ]
      - [ 2.58756280e-01, 2.04138756e-01, 1.18945055e-01, 1.00078031e-01,
          9.10852775e-02, 1.23696394e-01, 0., 1.16840698e-01,
          2.90482610e-01, 0., 0., 0., 0., 0., 0., 6.47787526e-02,
          8.56157690e-02, 1.01843178e-02, 0., 1.33938357e-01,
          5.91819435e-02, 9.09340456e-02, 0., 2.20518321e-01,
          8.03446472e-02, 0., 0., 0., 1.42468244e-01, 2.03893095e-01,
          2.08891034e-01, 2.21434563e-01, 1.87938467e-01, 6.62177205e-02,
          1.14571683e-01, 5.84844314e-02, 1.11100443e-01, 1.56166926e-01,
          1.54182091e-01, 1.66698888e-01, 1.84790030e-01, 7.81486481e-02,
          1.67903621e-02, 0., 0., 0., 1.40613854e-01, 1.71313792e-01,
          1.22729585e-01, 1.73025265e-01, 2.00051129e-01, 0., 0.,
          1.87670067e-02, 0., 0., 2.36469045e-01, 2.08579317e-01,
          1.88093707e-01, 2.00597897e-01, 0., 0., 0., 0. ]
      - [ 1.77954808e-01, 2.00810269e-01, 2.63119370e-01, 1.26921639e-01,
          0., 0., 0., 3.69021669e-02, 1.13263786e-01, 1.21385053e-01,
          2.02117711e-01, 0., 0., 0., 0., 0., 1.26587883e-01,
          3.74334790e-02, 0., 0., 1.23818912e-01, 1.74247041e-01,
          1.24985486e-01, 0., 0., 0., 0., 0., 1.87837988e-01,
          2.01871157e-01, 2.31918007e-01, 1.25059515e-01, 1.26600906e-01,
          7.81300962e-02, 6.37758523e-02, 8.54487196e-02, 1.13637552e-01,
          1.68968782e-01, 2.19415456e-01, 2.12669790e-01, 1.08817779e-01,
          1.16311736e-01, 1.06855765e-01, 5.72653264e-02, 0.,
          7.46261254e-02, 1.62747324e-01, 1.59530252e-01, 0.,
          1.67844966e-01, 1.07679427e-01, 1.63265139e-01, 1.87223494e-01,
          2.78364774e-02, 9.87989176e-03, 6.29304275e-02, 1.86412230e-01,
          1.99675784e-01, 1.76534086e-01, 2.64389575e-01, 2.80291401e-02,
          0., 0., 0. ]
      - [ 2.55092651e-01, 3.34419727e-01, 1.30896270e-01, 8.87720510e-02,
          0., 1.21214781e-02, 0., 0., 0., 5.37886545e-02, 3.34650837e-02,
          0., 1.10272542e-02, 0., 0., 0., 2.36596346e-01, 1.33992806e-02,
          0., 0., 5.73716499e-02, 8.31319317e-02, 0., 5.37410825e-02,
          7.92490914e-02, 9.68334302e-02, 3.84620801e-02, 0.,
          1.57166496e-01, 2.75734156e-01, 1.83684647e-01, 2.00659767e-01,
          0., 0., 0., 0., 1.57999650e-01, 1.34577245e-01, 3.14680815e-01,
          2.56366402e-01, 4.58537899e-02, 8.49869028e-02, 5.45605123e-02,
          0., 1.03079274e-01, 0., 6.80278093e-02, 0., 0., 8.05988014e-02,
          1.35243312e-01, 9.87942144e-02, 0., 0., 8.30443576e-02,
          1.88166425e-01, 2.34565109e-01, 1.93868324e-01, 2.68447191e-01,
          2.08425149e-01, 0., 0., 6.72151446e-02, 8.84246007e-02 ]
      - [ 1.78486750e-01, 2.10661009e-01, 2.12172136e-01, 2.14821592e-01,
          0., 0., 0., 0., 0., 1.59846425e-01, 1.35321647e-01,
          1.30311996e-01, 0., 0., 5.69936866e-03, 0., 1.20770440e-01,
          3.11097242e-02, 4.75192666e-02, 1.30312249e-01, 1.03457376e-01,
          1.13321222e-01, 9.79504138e-02, 5.51873296e-02, 1.90529585e-01,
          7.69295618e-02, 3.10704596e-02, 0., 2.23712400e-01,
          1.95495278e-01, 1.49251238e-01, 2.16634393e-01, 4.81311418e-02,
          0., 1.46694690e-01, 1.08148649e-01, 1.24559000e-01,
          1.72012225e-01, 1.22204922e-01, 2.88216919e-01, 6.03323393e-02,
          3.52918580e-02, 0., 0., 8.36347193e-02, 1.18161902e-01,
          1.24573283e-01, 1.02763422e-01, 1.22922651e-01, 1.23464495e-01,
          1.58796161e-01, 0., 0., 0., 3.37563716e-02, 2.33538926e-01,
          1.52972609e-01, 1.78882048e-01, 1.70268625e-01, 2.15870723e-01,
          9.01149306e-03, 0., 0., 1.64942890e-01 ]
      - [ 2.02715948e-01, 1.85827479e-01, 1.54661611e-01, 1.82401955e-01,
          1.33034497e-01, 0., 0., 3.92764471e-02, 1.20202728e-01,
          1.27893150e-01, 9.96211022e-02, 1.29692882e-01, 0., 0., 0.,
          1.96112506e-02, 1.24519646e-01, 6.22816160e-02, 0., 0., 0.,
          1.16825387e-01, 1.74700305e-01, 1.88246787e-01, 0., 0., 0., 0.,
          1.84562236e-01, 2.09708244e-01, 2.38384932e-01, 1.37918040e-01,
          0., 0., 1.57005236e-01, 1.22318268e-01, 1.67232350e-01,
          1.74547136e-01, 1.95533633e-01, 1.88841537e-01, 1.35312319e-01,
          0., 0., 0., 1.26602039e-01, 1.57743916e-01, 1.47847995e-01, 0.,
          1.72627494e-01, 1.73697621e-01, 1.25604108e-01, 1.14903972e-01,
          0., 0., 2.61148382e-02, 1.35380998e-01, 1.99821651e-01,
          1.91157401e-01, 1.92702636e-01, 2.10162535e-01, 1.35559663e-01,
          0., 0., 0. ]
      - [ 7.39658475e-02, 1.60084501e-01, 2.70327151e-01, 1.73054948e-01,
          0., 0., 0., 0., 3.75689641e-02, 9.99243334e-02, 1.01436608e-01,
          4.24310490e-02, 0., 0., 1.16048388e-01, 1.58701181e-01,
          1.89366221e-01, 2.13720202e-02, 0., 5.42435944e-02,
          1.51907176e-01, 1.07401885e-01, 8.91857967e-02, 5.06556146e-02,
          1.30615711e-01, 2.00369313e-01, 0., 0., 1.84904382e-01,
          2.36774698e-01, 1.38465434e-01, 1.89977810e-01, 0.,
          2.11188514e-02, 0., 1.34735644e-01, 1.70930922e-01,
          2.23958150e-01, 1.92289159e-01, 1.33166716e-01, 1.67233676e-01,
          1.00537099e-01, 0., 0., 8.75978172e-02, 1.14727952e-01,
          7.29644969e-02, 1.70490425e-02, 1.41888842e-01, 1.35893658e-01,
          8.65959600e-02, 1.33390516e-01, 4.08313647e-02, 0.,
          4.22054492e-02, 1.87206060e-01, 1.63883194e-01, 2.11047545e-01,
          2.17614189e-01, 1.56616628e-01, 1.31435081e-01, 9.81545225e-02,
          9.52212885e-02, 1.33301750e-01 ]
      - [ 1.58904046e-01, 2.42638871e-01, 2.36747876e-01, 1.32688880e-01,
          0., 0., 0., 0., 1.31493926e-01, 1.66957647e-01, 1.47086248e-01,
          4.39369418e-02, 0., 2.99606789e-02, 0., 0., 5.81772551e-02, 0.,
          0., 1.25396967e-01, 1.33534387e-01, 9.38125104e-02,
          8.69737640e-02, 8.41757879e-02, 1.46029115e-01, 1.11269683e-01,
          0., 0., 2.19151914e-01, 1.44665480e-01, 2.00315088e-01,
          2.09232226e-01, 1.14670113e-01, 0., 1.04698032e-01, 0.,
          2.38192677e-01, 1.98714390e-01, 8.39452520e-02, 1.42575011e-01,
          1.88694626e-01, 8.45823288e-02, 5.60731478e-02, 1.55982956e-01,
          8.74025822e-02, 7.57406652e-02, 9.90538299e-02, 1.42341435e-01,
          1.59349605e-01, 1.10558711e-01, 1.09793648e-01, 8.64921734e-02,
          1.37573212e-01, 5.02988659e-02, 1.14554875e-01, 1.16820969e-01,
          1.30984858e-01, 2.14349762e-01, 1.63042858e-01, 1.88376173e-01,
          1.31047189e-01, 0., 4.86678220e-02, 1.18965104e-01 ]
      - [ 2.66248435e-01, 2.41953298e-01, 1.44599646e-01, 1.15971468e-01,
          0., 0., 0., 0., 0., 7.98380375e-02, 0., 0., 0., 0.,
          5.30604459e-02, 2.33466089e-01, 1.81548253e-01, 4.00939882e-02,
          0., 0., 6.65242299e-02, 4.10923176e-02, 6.91710413e-02,
          1.28372446e-01, 9.98967141e-02, 5.83018102e-02, 0.,
          4.53313962e-02, 1.59249783e-01, 1.54530615e-01, 1.22821987e-01,
          3.38500977e-01, 0., 0., 0., 3.16105820e-02, 1.14973314e-01,
          1.46525800e-01, 1.68204889e-01, 3.89433444e-01, 8.22601393e-02,
          0., 0., 0., 6.20529875e-02, 9.83334184e-02, 0., 0.,
          1.42684534e-01, 7.20315427e-02, 6.72606230e-02, 7.18533099e-02,
          0., 0., 5.69426492e-02, 2.77888358e-01, 2.73486406e-01,
          1.44981131e-01, 1.40419662e-01, 1.88319370e-01, 3.61151099e-02,
          0., 7.79661983e-02, 7.88964331e-02 ]
      - [ 7.08558708e-02, 2.61702091e-01, 2.30472490e-01, 1.33898556e-01,
          1.01375483e-01, 8.61019567e-02, 1.37146199e-02, 0., 0.,
          2.04679742e-01, 1.46857709e-01, 0., 0., 0., 0., 0.,
          1.37434214e-01, 3.66538623e-03, 0., 1.44011930e-01,
          9.71928462e-02, 1.08099893e-01, 1.22039936e-01, 0.,
          1.39229819e-01, 1.47482485e-01, 3.02516632e-02, 0.,
          1.89128205e-01, 2.42750615e-01, 1.98165208e-01, 1.21953584e-01,
          1.31464243e-01, 9.73412767e-02, 1.24706134e-01, 1.16365366e-01,
          1.10580467e-01, 1.29813358e-01, 1.68384001e-01, 2.63899386e-01,
          1.06770890e-02, 0., 1.20963104e-01, 2.37712320e-02,
          3.17318849e-02, 8.48711953e-02, 1.62513167e-01, 9.27065238e-02,
          1.86110795e-01, 1.40389144e-01, 1.21949621e-01, 1.16514593e-01,
          0., 0., 1.65536236e-02, 1.83143243e-01, 1.36005893e-01,
          2.41208419e-01, 1.22312486e-01, 1.64334238e-01, 1.65012479e-01,
          0., 0., 6.00983091e-02 ]
      - [ 2.18120962e-01, 1.73921928e-01, 1.43655851e-01, 1.51149005e-01,
          0., 0., 0., 1.61371127e-01, 1.07842520e-01, 1.58385023e-01, 0.,
          9.10889208e-02, 7.08579123e-02, 0., 0., 1.16920665e-01,
          1.62103459e-01, 1.23661809e-01, 0., 1.31428853e-01,
          6.64178953e-02, 1.29804939e-01, 1.13209762e-01, 1.40692756e-01,
          1.35340303e-01, 1.21491015e-01, 3.81462388e-02, 1.28045037e-01,
          1.48458391e-01, 1.58943757e-01, 1.78123280e-01, 1.62340373e-01,
          0., 0., 0., 0., 1.28925756e-01, 1.62614182e-01, 2.91920215e-01,
          1.46356136e-01, 0., 2.87377089e-02, 0., 0., 6.47177398e-02,
          1.41747594e-01, 2.25718647e-01, 1.13606870e-01, 1.24992274e-01,
          1.19553663e-01, 9.82726067e-02, 1.94574729e-01, 3.04787252e-02,
          0., 0., 1.72314882e-01, 1.85890585e-01, 1.39535636e-01,
          2.07717732e-01, 2.08110854e-01, 0., 0., 3.81103382e-02,
          1.76817641e-01 ]
      - [ 1.70084208e-01, 1.39400482e-01, 1.18813977e-01, 1.81121722e-01,
          1.28841788e-01, 0., 0., 0., 1.51914001e-01, 1.23406097e-01,
          1.05219409e-01, 1.05650879e-01, 1.29982993e-01, 0.,
          7.14914948e-02, 1.77182436e-01, 1.46602854e-01, 9.36495811e-02,
          6.60766289e-02, 1.42817453e-01, 1.63308412e-01, 1.44288644e-01,
          8.90584290e-02, 8.31256583e-02, 7.29249418e-02, 7.31961280e-02,
          5.96677735e-02, 0., 2.58791655e-01, 1.34853885e-01,
          1.43194705e-01, 9.47918221e-02, 1.27404854e-01, 0., 0., 0.,
          1.91965938e-01, 1.85288921e-01, 2.51065075e-01, 1.28706306e-01,
          1.25843674e-01, 3.59626091e-03, 0., 0., 1.26756638e-01,
          1.66845590e-01, 1.17023215e-01, 1.27810404e-01, 1.48700178e-01,
          1.21226050e-01, 1.55594438e-01, 1.16804145e-01, 0., 0., 0.,
          2.49426179e-02, 2.57571280e-01, 1.73872113e-01, 1.58082515e-01,
          2.24062219e-01, 0., 0., 0., 1.55198768e-01 ]
      - [ 2.43282616e-01, 2.20638722e-01, 2.29733169e-01, 0., 0., 0., 0.,
          0., 2.28605837e-01, 9.68813226e-02, 0., 0., 0., 0., 0.,
          7.64228255e-02, 1.37028009e-01, 0., 0., 0., 7.02158287e-02,
          9.91991609e-02, 1.29791006e-01, 1.32666305e-01, 1.35718003e-01,
          0., 0., 2.33354680e-02, 2.85884123e-02, 1.94830686e-01,
          2.52000242e-01, 2.17255369e-01, 1.25049368e-01, 0.,
          6.66680560e-02, 1.38365045e-01, 1.38376221e-01, 1.47144899e-01,
          1.67077050e-01, 2.37035170e-01, 1.88810393e-01, 6.50664195e-02,
          7.54452571e-02, 8.69021192e-02, 1.05895653e-01, 0.,
          1.18165314e-01, 1.55613184e-01, 1.78397015e-01, 1.17418692e-01,
          1.15206957e-01, 1.15633160e-01, 7.52067864e-02, 0.,
          3.22968736e-02, 1.41390935e-01, 2.88986981e-01, 1.41657472e-01,
          1.48735419e-01, 1.40524149e-01, 1.56163886e-01, 0., 0., 0. ]
      - [ 2.38946721e-01, 2.65165508e-01, 1.20141380e-01, 9.28469598e-02,
          0., 0., 0., 0., 2.33707115e-01, 9.65221301e-02, 7.85383135e-02,
          0., 0., 0., 0., 0., 1.35220766e-01, 7.58426730e-03, 0., 0., 0.,
          0., 1.34922937e-01, 2.28052869e-01, 0., 0., 0., 0.,
          8.71667415e-02, 1.25982895e-01, 2.45122358e-01, 2.39762291e-01,
          2.77630743e-02, 0., 0., 0., 1.38366178e-01, 1.82180583e-01,
          2.57688433e-01, 1.41491979e-01, 1.93681702e-01, 2.57679839e-02,
          0., 0., 9.55790430e-02, 8.90697539e-02, 1.68849647e-01,
          2.05360502e-01, 2.49913797e-01, 1.06604844e-01, 9.32604522e-02,
          0., 3.73640507e-02, 1.41385436e-01, 6.82630837e-02,
          2.69024875e-02, 2.72240490e-01, 2.05186397e-01, 1.49192899e-01,
          1.91355973e-01, 0., 0., 0., 0. ]
      - [ 1.70663610e-01, 1.39627829e-01, 2.05288067e-01, 1.82593331e-01,
          1.30756736e-01, 0., 0., 0., 1.18743390e-01, 1.35317385e-01,
          1.26694858e-01, 1.46123156e-01, 9.02352408e-02, 9.19135585e-02,
          6.81999847e-02, 0., 6.32107258e-02, 3.56105268e-02, 0.,
          1.30669996e-01, 1.77318558e-01, 1.28516942e-01, 8.79543573e-02,
          1.54490396e-01, 0., 1.09041966e-02, 3.15422341e-02,
          1.30624428e-01, 2.39556089e-01, 1.33975297e-01, 1.27977550e-01,
          2.09306091e-01, 0., 0., 0., 0., 2.31528148e-01, 2.88801879e-01,
          1.20051861e-01, 7.90447816e-02, 5.08037433e-02, 0., 0., 0.,
          2.12441012e-01, 2.05652595e-01, 0., 5.96979111e-02, 0.,
          8.61687586e-02, 1.02325439e-01, 2.55925387e-01, 0., 0., 0., 0.,
          1.32144555e-01, 1.38145730e-01, 2.40595505e-01, 2.53332734e-01,
          2.05031782e-02, 0., 4.25517149e-02, 1.29091382e-01 ]
      - [ 2.74696022e-01, 1.62396297e-01, 1.18475609e-01, 2.06184223e-01,
          2.83830632e-02, 0., 0., 0., 2.07173437e-01, 1.43050611e-01,
          1.08724236e-01, 1.09593704e-01, 0., 0., 0., 2.65960936e-02, 0.,
          1.15914522e-02, 9.62024275e-03, 1.24417089e-01, 6.15177043e-02,
          8.93452466e-02, 1.02545291e-01, 1.94673374e-01, 1.31007865e-01,
          0., 0., 1.24753930e-01, 1.47990704e-01, 1.54318526e-01,
          1.94359958e-01, 2.42121652e-01, 1.93376228e-01, 2.87562069e-02,
          0., 5.92850931e-02, 2.24668503e-01, 1.54243827e-01,
          1.44100159e-01, 2.12858871e-01, 7.40251094e-02, 0., 0.,
          9.40057412e-02, 2.03567386e-01, 7.54802302e-02, 1.69405583e-02,
          7.28659481e-02, 1.39125898e-01, 1.42744213e-01, 2.30575353e-01,
          0., 0., 0., 0., 1.87051687e-02, 2.09504515e-01, 2.02022344e-01,
          2.30697334e-01, 1.47778496e-01, 0., 0., 0., 5.06640878e-03 ]
      - [ 1.63831845e-01, 2.75408596e-01, 1.79093719e-01, 9.43428874e-02,
          0., 0., 0., 0., 1.36495396e-01, 1.56535611e-01, 1.35500968e-01,
          8.14053565e-02, 8.90759900e-02, 7.25345835e-02, 5.25120385e-02,
          0., 1.88867107e-01, 2.23888587e-02, 0., 1.31126851e-01,
          1.51035920e-01, 9.00189951e-02, 1.00477323e-01, 1.45079881e-01,
          1.46995410e-01, 4.39068377e-02, 3.23057249e-02, 1.13269649e-01,
          1.55124158e-01, 1.88121840e-01, 1.47333682e-01, 1.40332714e-01,
          0., 4.69822511e-02, 0., 1.07544482e-01, 1.74159944e-01,
          2.16093510e-01, 1.59041196e-01, 1.95417374e-01, 7.79158808e-03,
          7.97461420e-02, 1.34132951e-01, 0., 1.17482975e-01,
          1.64339587e-01, 1.20006047e-01, 1.00341454e-01, 1.58721969e-01,
          1.54987514e-01, 1.81974292e-01, 9.15685818e-02, 1.61843020e-02,
          3.46371308e-02, 0., 1.23294249e-01, 1.82056099e-01,
          2.17322096e-01, 2.31896520e-01, 1.32987589e-01, 0., 0., 0.,
          1.24033771e-01 ]
      - [ 2.41215900e-01, 1.53643981e-01, 1.45417467e-01, 8.34140480e-02,
          1.74762890e-01, 2.53794864e-02, 0., 0., 1.33147344e-01,
          1.09263137e-01, 6.12002946e-02, 0., 1.47636935e-01,
          9.66556445e-02, 0., 0., 1.59394011e-01, 0., 0., 0.,
          1.41705960e-01, 9.49042663e-02, 1.62750795e-01, 1.16838686e-01,
          1.61296219e-01, 0., 0., 0., 2.08792150e-01, 1.51078925e-01,
          1.52579442e-01, 1.90978900e-01, 0., 0., 2.80958097e-02,
          1.90844193e-01, 1.21609658e-01, 1.89238742e-01, 1.77484035e-01,
          1.63458750e-01, 1.43335849e-01, 1.27342418e-01, 1.01586722e-01,
          7.00065419e-02, 7.74194300e-02, 1.66418523e-01, 1.28792569e-01,
          1.36581317e-01, 1.13689348e-01, 1.48773804e-01, 1.64065689e-01,
          2.04825267e-01, 6.95372047e-03, 0., 0., 1.00491427e-01,
          1.07328825e-01, 2.09132135e-01, 1.96407244e-01, 2.37649500e-01,
          5.53392693e-02, 0., 7.54890777e-03, 1.14440471e-01 ]
      - [ 1.75833493e-01, 1.79704636e-01, 2.12358966e-01, 9.99500751e-02,
          0., 0., 5.30520789e-02, 0., 2.10634768e-01, 1.20515317e-01,
          1.04276985e-01, 0., 9.53392461e-02, 0., 9.98885743e-03,
          1.69567749e-01, 1.64629877e-01, 2.65470818e-02, 5.83902560e-02,
          1.43749833e-01, 0., 9.57607478e-02, 5.95158152e-02,
          1.53846264e-01, 1.73695624e-01, 0., 0., 0., 1.70675009e-01,
          1.25523135e-01, 1.85196027e-01, 2.08465919e-01, 1.47721618e-01,
          0., 0., 1.46822467e-01, 1.09080598e-01, 1.71400532e-01,
          1.66270629e-01, 2.44154006e-01, 2.64317784e-02, 6.68994337e-02,
          4.21935283e-02, 1.70400470e-01, 9.67898816e-02, 8.22762996e-02,
          4.70715091e-02, 1.68735102e-01, 1.70780316e-01, 1.85617730e-01,
          1.88160628e-01, 0., 0., 0., 4.92790639e-02, 2.49665938e-02,
          2.87006080e-01, 1.63574830e-01, 1.45507365e-01, 2.07366690e-01,
          0., 0., 0., 0. ]
      - [ 1.86677739e-01, 2.67732024e-01, 2.10929632e-01, 0., 0., 0., 0.,
          0., 0., 2.31195658e-01, 1.04898140e-01, 5.02611585e-02, 0., 0.,
          0., 2.07853112e-02, 1.53800454e-02, 0., 5.42250574e-02,
          5.63289598e-02, 1.21323422e-01, 1.28770322e-01, 7.60058388e-02,
          1.14614390e-01, 1.70080990e-01, 3.03903781e-02, 0.,
          3.03976517e-02, 1.87518939e-01, 1.41980842e-01, 1.80374965e-01,
          2.37521783e-01, 1.25665814e-01, 0., 5.08374162e-02,
          1.34933025e-01, 1.35018811e-01, 1.32939637e-01, 2.41631284e-01,
          2.32756123e-01, 0., 5.30604459e-02, 6.58188164e-02,
          1.27586186e-01, 1.32581919e-01, 6.12715706e-02, 1.47631362e-01,
          1.20762810e-01, 1.23800531e-01, 1.45129412e-01, 1.93177745e-01,
          1.07149094e-01, 0., 0., 8.45288578e-03, 1.30216822e-01,
          2.26802886e-01, 2.35619158e-01, 1.40098915e-01, 1.36873379e-01,
          1.39266595e-01, 0., 0., 1.29770398e-01 ]
      - [ 2.20077381e-01, 3.08046639e-01, 0., 0., 0., 0., 0., 0.,
          1.12125345e-01, 0., 0., 0., 0., 0., 0., 5.20249419e-02,
          2.41595879e-01, 4.15673014e-03, 0., 0., 0., 1.34408265e-01,
          8.37740749e-02, 8.49540159e-02, 1.29795581e-01, 1.41330913e-01,
          1.04118809e-01, 0., 1.38955191e-01, 1.71947360e-01,
          1.55595139e-01, 1.89094245e-01, 0., 1.07533149e-01,
          1.38166845e-01, 0., 1.39332414e-01, 9.42701474e-02,
          2.63783514e-01, 1.94536641e-01, 2.07566336e-01, 9.74242836e-02,
          1.13106154e-01, 0., 0., 7.96155259e-02, 8.99005160e-02,
          7.22570494e-02, 1.28489763e-01, 1.40894741e-01, 0.,
          9.63531211e-02, 1.36162922e-01, 0., 6.74354285e-02,
          2.04054087e-01, 2.64499456e-01, 1.59610897e-01, 1.82904676e-01,
          1.71621203e-01, 1.39798328e-01, 4.42565568e-02, 8.79848972e-02,
          2.11793602e-01 ]
      - [ 1.33844972e-01, 2.12685809e-01, 1.90735936e-01, 1.31954312e-01,
          0., 4.27649170e-02, 1.16477221e-01, 1.25602871e-01,
          4.15868089e-02, 1.20800890e-01, 1.11736864e-01, 0., 0., 0., 0.,
          1.71787217e-01, 1.85654864e-01, 0., 0., 0., 8.41292813e-02,
          9.95328650e-02, 8.70463252e-02, 1.75845176e-01, 6.26552776e-02,
          1.85753480e-01, 0., 0., 1.22634232e-01, 2.08431214e-01,
          1.98148727e-01, 1.84295654e-01, 1.02449670e-01, 0., 0.,
          1.32144511e-01, 1.32982403e-01, 2.24834010e-01, 1.52163550e-01,
          2.21206307e-01, 5.94740827e-03, 5.00115426e-03, 8.03373083e-02,
          1.73928395e-01, 9.17825550e-02, 9.72056314e-02, 0.,
          1.73273429e-01, 2.11297959e-01, 1.56765178e-01, 1.02963902e-01,
          8.57507512e-02, 1.28274053e-01, 0., 3.42141725e-02,
          1.03720156e-02, 2.50497103e-01, 2.41878197e-01, 1.48785666e-01,
          1.26079246e-01, 1.27824426e-01, 0., 0., 0. ]
      - [ 2.44806558e-01, 2.05789164e-01, 1.12245701e-01, 1.28158391e-01,
          4.52938303e-02, 0., 8.42027217e-02, 1.05293445e-01,
          2.15082094e-01, 7.93031827e-02, 0., 0., 0., 0., 9.66662541e-02,
          1.15705110e-01, 1.52001679e-01, 0., 0., 3.13659050e-02, 0., 0.,
          1.63616955e-01, 1.97192878e-01, 0., 0., 0., 0., 0.,
          2.03055799e-01, 2.24664822e-01, 2.03079060e-01, 0., 0., 0.,
          3.32358815e-02, 1.29983678e-01, 1.38054416e-01, 2.52655178e-01,
          2.44010642e-01, 7.32262135e-02, 1.00012921e-01, 2.50410922e-02,
          5.57918362e-02, 0., 1.09088100e-01, 1.51808336e-01,
          2.35440865e-01, 1.34906143e-01, 1.48262590e-01, 1.27546668e-01,
          7.53215104e-02, 1.35893270e-01, 7.04125315e-02, 7.56547824e-02,
          8.24947134e-02, 2.38732338e-01, 2.32546806e-01, 1.40996158e-01,
          1.25684828e-01, 1.56342983e-01, 0., 0., 1.06349871e-01 ]
      - [ 2.81241477e-01, 1.01465330e-01, 1.12432741e-01, 8.24813843e-02,
          1.22748710e-01, 1.57981321e-01, 1.07211666e-02, 5.25444336e-02,
          1.98148876e-01, 1.20934136e-01, 5.89893386e-02, 7.06264600e-02,
          0., 7.47559443e-02, 8.56813639e-02, 6.17869645e-02,
          1.29937097e-01, 0., 3.67847122e-02, 1.77989379e-01,
          9.18965116e-02, 6.75821006e-02, 7.78594762e-02, 8.85230303e-02,
          2.10864678e-01, 4.30414975e-02, 2.08920706e-02, 1.75475076e-01,
          1.25649095e-01, 2.11705267e-01, 1.11927792e-01, 2.07910582e-01,
          0., 7.33170435e-02, 3.59228104e-02, 2.06578568e-01,
          8.22165981e-02, 1.77015677e-01, 2.12660864e-01, 1.22967914e-01,
          0., 3.98011059e-02, 1.21264860e-01, 1.31808460e-01,
          9.66545269e-02, 1.20892450e-01, 8.13611522e-02, 1.50827974e-01,
          1.20486915e-01, 1.75018117e-01, 1.73725471e-01, 1.47313654e-01,
          0., 0., 0., 2.72489619e-02, 1.75077885e-01, 2.02350259e-01,
          2.45601490e-01, 1.81204453e-01, 0., 0., 0., 3.36246863e-02 ]
      - [ 1.44094557e-01, 2.01149926e-01, 2.05754593e-01, 1.93489000e-01,
          5.14243916e-02, 0., 0., 0., 0., 4.09777388e-02, 1.40208945e-01,
          1.59862086e-01, 6.29031584e-02, 0., 0., 5.00413366e-02,
          1.75415918e-01, 0., 0., 0., 1.22433372e-01, 2.14432091e-01,
          8.60306323e-02, 1.15271084e-01, 2.68150587e-02, 1.24312796e-01,
          6.79943562e-02, 0., 2.34465227e-01, 2.20459685e-01,
          1.51435509e-01, 8.60462636e-02, 0., 0., 0., 0., 2.23668188e-01,
          1.98553070e-01, 2.32093826e-01, 9.07202438e-02, 0., 0.,
          5.81413247e-02, 1.82784587e-01, 1.21612519e-01, 1.20439067e-01,
          1.37450650e-01, 4.93194386e-02, 1.42738357e-01, 9.84089375e-02,
          1.59416646e-01, 1.71085566e-01, 1.21911786e-01, 0.,
          1.87480561e-02, 1.83245003e-01, 1.26341924e-01, 2.03905329e-01,
          1.99048340e-01, 1.30597651e-01, 1.74224257e-01, 3.38077173e-02,
          4.16220129e-02, 1.26190707e-01 ]
      - [ 1.88255355e-01, 1.67127788e-01, 1.97982267e-01, 2.17326611e-01,
          0., 0., 0., 0., 8.52918476e-02, 1.32458821e-01, 1.23039685e-01,
          1.06233127e-01, 1.78922474e-01, 2.56612543e-02, 0.,
          7.48988912e-02, 6.39327765e-02, 4.71534673e-03, 5.93180135e-02,
          1.30760089e-01, 1.32945463e-01, 1.15499027e-01, 1.27338290e-01,
          8.18103403e-02, 1.30098999e-01, 0., 0., 1.24611519e-01,
